tree
num_class=1
num_tree_per_iteration=1
label_index=0
max_feature_idx=27
objective=binary sigmoid:1
feature_names=Column_0 Column_1 Column_2 Column_3 Column_4 Column_5 Column_6 Column_7 Column_8 Column_9 Column_10 Column_11 Column_12 Column_13 Column_14 Column_15 Column_16 Column_17 Column_18 Column_19 Column_20 Column_21 Column_22 Column_23 Column_24 Column_25 Column_26 Column_27
feature_infos=[0.27500000000000002:6.6949999999999994] [-2.4169999999999998:2.4299999999999997] [-1.7429999999999999:1.7429999999999999] [0.019:5.7000000000000002] [-1.7429999999999999:1.7429999999999999] [0.15900000000000003:4.1899999999999995] [-2.9409999999999998:2.9699999999999998] [-1.7409999999999999:1.7409999999999999] [0:2.173] [0.19:5.1929999999999996] [-2.9039999999999999:2.9089999999999998] [-1.742:1.7429999999999999] [0:2.2149999999999999] [0.26400000000000001:6.5229999999999997] [-2.7280000000000002:2.7270000000000003] [-1.742:1.742] [0:2.548] [0.36499999999999999:6.0679999999999996] [-2.4949999999999997:2.4959999999999996] [-1.74:1.7429999999999999] [0:3.1019999999999999] [0.17200000000000001:13.097999999999999] [0.41900000000000004:7.3919999999999995] [0.46100000000000002:3.6819999999999999] [0.38400000000000001:6.5830000000000002] [0.092999999999999999:7.8599999999999994] [0.38900000000000001:4.5430000000000001] [0.48900000000000005:4.3159999999999998]

Tree=0
num_leaves=63
split_feature=25 26 27 25 25 24 22 5 5 26 27 25 27 26 27 24 3 25 13 3 22 24 9 13 24 5 0 5 0 24 25 22 19 19 22 3 2 9 21 2 21 3 21 27 27 0 9 25 21 22 5 21 25 10 25 7 7 22 2 21 26 7
split_gain=257.05504144977834 164.48120636837106 154.15294644144791 62.978179622205857 70.542638386226713 52.555365013671839 83.933734046461822 35.882753877555167 33.473928724249646 27.707943214821171 26.485653743525347 25.97676654588679 25.824818739772553 22.037843051377234 21.856713808127012 33.647255917153245 17.886983613559984 17.32991543764733 16.213031251869726 15.136119680946312 14.411938920172719 13.395714621949764 12.468846290963938 12.28102489128206 14.386191402320433 12.066684810959153 11.968351091103813 11.055958083040036 11.040820512820513 10.208116640485594 10.17115216724477 10.124193711952699 10.115089828466214 10.035527690700105 10.00620623699375 9.5723188405797117 10.43649122807018 9.564774883560462 9.4785017914110909 9.3363786689440786 8.2594268476621409 8.2282316394982296 8.1898314849488685 8.1244789659662437 7.8480824864624283 8.166868498436946 7.8238056729684615 9.3541890774041363 6.7462335811017216 6.5917032506289157 6.3734696968001572 6.2637178507766578 6.2107122584188392 6.1009870470568961 6.0972275864385148 6.0621230104797821 6.8256993575160614 5.9997386768075671 9.3212482607831451 7.8134966194667719 5.911330049261089 5.7212156534813197
threshold=1.2814999999999999 0.78049999999999997 0.90450000000000008 0.98449999999999993 0.67849999999999988 1.0265 1.0445 0.82550000000000012 1.0194999999999999 0.86950000000000016 0.78849999999999998 0.62349999999999994 0.84850000000000003 0.88850000000000007 0.88949999999999996 1.1225000000000001 1.9204999999999999 0.98950000000000005 1.3835000000000002 1.8334999999999999 0.94750000000000001 0.71849999999999992 1.0554999999999999 0.96150000000000002 0.75150000000000006 1.3365 1.1194999999999999 0.78349999999999986 0.82150000000000012 1.2174999999999998 0.86450000000000005 1.0285 1.0425 -0.3745 1.1345000000000001 0.94850000000000012 -0.28250000000000003 0.7024999999999999 0.93450000000000011 0.43550000000000005 0.89050000000000007 1.3014999999999999 1.0674999999999999 1.1895000000000002 0.85250000000000004 0.9335 1.3174999999999999 0.90050000000000008 1.0385 1.0234999999999999 0.48950000000000005 0.73150000000000004 1.1045 -0.071500000000000008 1.8759999999999999 0.87850000000000006 -0.033500000000000002 0.99249999999999994 0.57050000000000001 0.88450000000000006 0.96249999999999991 9.9999996826552254e-21
decision_type=0 0 0 0 0 0 0 0 0 0 0 0 0 0 0 0 0 0 0 0 0 0 0 0 0 0 0 0 0 0 0 0 0 0 0 0 0 0 0 0 0 0 0 0 0 0 0 0 0 0 0 0 0 0 0 0 0 0 0 0 0 0
default_value=0 0 0 0 0 0 0 0 0 0 0 0 0 0 0 0 0 0 0 0 0 0 0 0 0 0 0 0 1.7976931348623157e+308 0 0 0 -1.7275 -1.7275 0 0 0 0 0 -1.7284999999999999 0 0 0 0 0 0 0 0 0 0 0 0 0 1.7976931348623157e+308 1.7976931348623157e+308 -1.7304999999999999 -1.7304999999999999 0 -1.7284999999999999 1.7976931348623157e+308 0 -1.7304999999999999
left_child=1 7 3 4 23 6 26 21 13 10 30 48 25 -5 20 31 17 46 29 34 -2 32 37 24 -3 35 41 -12 -24 -19 -6 51 57 -22 39 36 -9 -8 -23 -17 -25 53 -40 -33 45 -26 47 55 -7 -31 -11 -16 -15 -4 -36 56 -13 58 59 -1 -10 -39
right_child=14 2 5 8 9 11 22 12 60 50 27 16 -14 52 15 19 -18 18 -20 -21 33 38 28 40 44 -27 -28 -29 -30 49 -32 43 -34 -35 54 -37 -38 61 42 -41 -42 -43 -44 -45 -46 -47 -48 -49 -50 -51 -52 -53 -54 -55 -56 -57 -58 -59 -60 -61 -62 -63
leaf_parent=59 20 24 53 13 30 48 37 36 60 50 27 56 12 52 51 39 16 29 18 19 33 38 28 40 45 25 26 27 28 49 30 43 32 33 54 35 36 61 42 39 40 41 42 43 44 45 46 47 48 49 50 51 52 53 54 55 56 57 58 59 60 61
leaf_value=-0.1044776119402985 -0.071074380165289261 0.1032258064516129 -0.08771929824561403 -0.075968992248062028 0.15294117647058825 -0.068000000000000005 0.066666666666666666 0.12000000000000005 0.066666666666666652 0.090196078431372562 -0.045161290322580636 0.043076923076923082 -0.11372549019607843 0.071264367816091953 -0.090196078431372562 -0.022580645161290325 -0.029166666666666671 -0.082352941176470587 0.11578947368421054 -0.14385964912280702 -0.039999999999999994 -0.1064748201438849 0.14666666666666667 0.039999999999999994 -0.029213483146067417 0.12592592592592594 -0.15873015873015872 0.079245283018867935 0.02769230769230769 -0.010309278350515464 0.071111111111111111 -0.041095890410958902 -0.10344827586206898 0.078787878787878796 0.058064516129032268 -0.034999999999999996 0.010526315789473682 0.017543859649122803 -0 -0.10804597701149427 0.15384615384615385 -0.12972972972972974 -0.10188679245283019 -0.13513513513513514 -0.074509803921568626 0.055319148936170216 0.13214285714285715 0.12075471698113208 0.016393442622950821 0.07636363636363637 0.16342857142857145 -0.16785714285714287 -0.0084507042253521136 0.0079999999999999984 -0.035294117647058816 -0.0068965517241379309 0.12941176470588237 0.049056603773584909 0.040000000000000008 -0 0.15862068965517243 -0.068656716417910449
leaf_count=67 121 62 57 129 187 100 63 55 54 51 62 130 51 87 51 124 96 51 57 57 50 278 60 50 89 54 126 53 65 97 90 73 58 66 62 80 95 57 78 87 52 74 53 74 51 94 112 106 61 55 700 224 71 50 51 58 51 53 55 50 58 67
internal_value=0 0.34035087719298246 0.54514576846872342 0.92371134020618562 1.1070733290071382 0.084118016321406155 -0.37156704361873988 -0.36416747809152872 0.21553884711779447 1.3595800524934383 0.9285714285714286 0.37371663244353182 0.17313432835820897 -0.14634146341463414 -0.7615384615384615 -0.9190535491905355 0.51906519065190648 0.62761506276150625 0.2153846153846154 -0.48818897637795278 -0.22784810126582278 -0.62427745664739887 0.35897435897435898 0.38190954773869346 0.17567567567567569 0.40845070422535212 -1.1140065146579805 0.12173913043478261 0.84799999999999998 -0.049261083743842367 1.2635379061371841 -1.3080568720379147 -0.28975265017667845 0.27586206896551724 -0.32098765432098764 0.20869565217391303 0.50666666666666671 0.032085561497326207 -0.85574572127139359 -0.5781990521327014 0.98039215686274506 -0.78453038674033149 -0.41221374045801529 -0.88435374149659862 -0.05128205128205128 0.14207650273224043 0.862144420131291 0.71304347826086956 -0.36024844720496896 0.21052631578947367 1.5845539280958723 -1.5345454545454544 0.35443037974683544 -0.42990654205607476 0.15929203539823009 0.49372384937238495 0.67403314917127077 -0.097777777777777783 -0.27906976744186046 -0.59829059829059827 1.1428571428571428 -0.29032258064516131
internal_count=5600 4560 3533 1940 1541 1593 619 1027 399 1143 392 974 335 287 1040 803 813 717 260 381 237 692 312 398 296 284 307 115 125 203 277 422 283 116 324 230 150 187 409 211 102 181 131 147 234 183 457 345 161 152 751 275 158 107 113 239 181 225 172 117 112 124
shrinkage=0.1
has_categorical=0


Tree=1
num_leaves=63
split_feature=25 26 25 25 3 5 5 26 3 22 22 22 25 24 26 22 26 24 3 5 26 24 13 24 26 2 5 17 5 19 9 18 24 13 25 5 14 23 10 18 23 11 2 19 11 6 13 7 24 23 26 26 25 25 13 19 6 7 19 15 14 26
split_gain=208.8856988758024 134.22862781581085 73.336141251882907 107.72030109253421 34.689130269984901 30.552763634476712 18.103109469970036 19.999862773928385 17.723799445838765 17.525322105585403 17.028386265083657 18.094765488778954 14.991212591391267 16.999988415909332 13.772145794865963 16.334634885118348 12.919405604169159 12.01002041234559 11.696188180229456 11.620128959976494 11.5277124554372 11.45916823404167 10.39693392563148 10.184193411150419 19.123177538869434 9.0402710825982293 8.693832083164331 8.2987521747374622 8.2571129184555545 8.1867948495273666 8.1866413620874514 7.7917401731188125 9.0094499414656717 9.3146086166026087 7.3532700686426953 7.2546577945092281 7.1816217725426403 6.7519820625386044 9.0723962318122702 7.3079250813463732 6.7449664602707742 6.6371397605266793 6.7301290479737617 7.8481371660272501 6.5937325355921645 6.5827361074706587 6.1954326482697493 6.0641889313545825 5.9093274165149055 5.799125019084304 5.7035797203334369 11.781379282428318 8.9777140906990205 5.6045896710062379 5.7047336540315001 5.5725625117860957 5.5465672627725278 5.5230144826818517 5.3974161685198201 5.2552224178889926 5.1669985149816604 4.6901600637327192
threshold=1.2814999999999999 0.77649999999999997 0.62349999999999994 0.98950000000000005 1.6175000000000002 0.82550000000000012 0.88149999999999995 1.0375000000000001 1.8534999999999999 1.0445 1.0024999999999999 0.84950000000000014 0.58149999999999991 0.74550000000000005 0.97649999999999992 0.78449999999999998 0.94950000000000001 0.71849999999999992 1.1435 1.5754999999999999 1.1205000000000001 1.1915 0.73249999999999993 1.3235000000000001 1.3345 0.16350000000000001 1.2494999999999998 1.1765000000000001 0.83850000000000002 1.0425 0.91050000000000009 0.058500000000000003 0.78249999999999997 1.0274999999999999 0.79549999999999987 0.46450000000000002 -0.3785 0.99150000000000005 0.0935 0.94450000000000012 0.99950000000000006 1.1819999999999999 1.0354999999999999 -1.0565 0.1115 0.14450000000000002 0.78549999999999986 -0.17200000000000001 0.98950000000000005 0.98649999999999993 0.84350000000000014 0.9245000000000001 0.86450000000000005 0.79849999999999999 0.63349999999999995 0.76249999999999996 -0.34349999999999997 -0.59699999999999998 -0.053000000000000005 0.46550000000000002 -0.12150000000000001 1.2785
decision_type=0 0 0 0 0 0 0 0 0 0 0 0 0 0 0 0 0 0 0 0 0 0 0 0 0 0 0 0 0 0 0 0 0 0 0 0 0 0 0 0 0 0 0 0 0 0 0 0 0 0 0 0 0 0 0 0 0 0 0 0 0 0
default_value=0 0 0 0 0 0 0 0 0 0 0 0 0 0 0 0 0 0 0 0 0 0 0 0 0 -1.7284999999999999 0 0 0 -1.7275 0 -2.3614999999999995 0 0 0 0 -2.5899999999999999 0 -2.7195 -2.3614999999999995 0 -1.7315 -1.7284999999999999 -1.7275 -1.7315 -2.7565 0 1.7976931348623157e+308 0 1.7976931348623157e+308 0 0 0 0 0 -1.7275 -2.7565 -1.7304999999999999 -1.7275 -1.7275 -2.5899999999999999 0
left_child=1 5 19 4 6 17 18 53 9 14 11 28 13 -7 30 -16 -12 29 35 31 47 61 -6 24 -11 -22 -9 -25 -5 56 -2 32 -3 -34 -14 -4 -20 39 -39 49 50 42 43 -19 -24 58 -38 -18 -28 -33 -37 -52 -53 54 -8 -45 -1 -30 -13 -58 -47 -17
right_child=8 2 3 10 22 12 7 26 -10 23 16 45 34 -15 15 21 20 41 36 -21 25 -23 44 27 -26 -27 48 -29 57 -31 -32 37 33 -35 -36 40 46 38 -40 -41 -42 -43 -44 55 -46 60 -48 -49 -50 -51 51 52 -54 -55 -56 -57 59 -59 -60 -61 -62 -63
leaf_parent=56 30 32 35 28 22 13 54 26 8 24 16 58 34 13 15 61 47 43 36 19 25 21 44 27 24 25 48 27 57 29 30 49 33 33 34 50 46 38 38 39 40 41 42 55 44 60 46 47 48 49 51 52 52 53 54 55 59 57 58 59 60 61
leaf_value=0.03054191309342499 -0.077733768359849381 0.026303510642850993 0.028402645132494499 -0.039638348409412189 0.075508945397871507 0.026005947246202057 0.063649196196235755 0.040839610484817206 -0.15485134643054149 0.0016310700993469351 -0.039043260948271014 -0.067790974986911515 0.095120907083878284 -0.10810429076198812 0.0087342609772199497 -0.11493143514400168 0.15046973369967265 -0.017093619898944781 -0.020136739862348738 0.074624894384501622 -0.028649150286398545 -0.060693423577846885 0.032886201840927422 -0.026125128342244813 -0.11883225381787497 0.071214199127368802 0.054062512933518082 0.087506565970540823 -0.0081401894840979882 -0.093362000391187958 0.023636191339522359 0.049749806412006881 -0.095495040272900247 -0.00067105517528839821 0.0099648116657571912 0.043230996256130111 0.0037145577754935915 -0.030243601632859714 0.081722864261012385 -0.085796002188588807 0.1295625645066584 -0.018973197981158371 -0.15532309603981198 -0.12252536408471848 -0.04140926264643266 -0.043286336131245426 0.091129066792202118 0.061068169808447592 0.13710251093103476 -0.044796454961218049 0.13343031376137343 0.015998104130553577 0.10840198260443634 0.14953294212931012 0.13206951491491492 -0.057346534091165247 -0.064149926592597911 0.072958995654177766 0.005165635134556092 0.01743020092783118 -0.12684445236038641 -0.1714330732325943
leaf_count=87 58 50 73 63 94 95 72 159 88 130 73 77 95 63 54 226 55 64 67 52 78 141 92 53 89 68 53 50 50 58 71 53 146 58 71 112 51 50 69 57 167 60 55 133 100 52 90 68 98 51 166 92 78 411 153 87 86 103 86 50 69 80
internal_value=0 0.30724502947558963 0.48993719677914732 0.61781812784889745 0.85807543888403615 -0.33905274080586784 0.95894753162011559 1.1523662968385697 -0.68745871668244785 -0.60806511939290597 0.011960763153730035 -0.22347342593232641 0.1668343647791862 -0.27452156258183119 -0.80248808775868474 -0.95292199079644258 0.35615692532089016 -0.58011746120505148 0.75486434120361179 -0.15711050898279244 0.55889918569223629 -1.0787424217932211 0.20909641231609671 -0.22832888558964265 -0.47256463090168604 0.17852997866739964 0.73527295367205969 0.29043026742040817 0.213216406624048 -0.26323255981269378 -0.21935218846505644 -0.24505938862610308 -0.49894497173272528 -0.68546998753014254 0.58692548579018244 0.8807712147278155 0.33858176438979753 -0.014796185329359855 0.34673728629868467 -0.2820055632803749 0.95172645426998848 -0.80348391438425493 -0.91214102591094037 -0.78798585784370612 -0.058038389332267293 -0.55554143177248161 0.59524555662473944 1.0103989848274637 1.0795780442959462 0.033712490558953097 0.82364166507160763 0.95427304223344722 0.58366237020136325 1.3560135027123223 1.1017379334860673 -0.96753710974809082 -0.089155436260108856 0.46451671506283682 -0.29300281544539758 -0.34156419512470687 -0.90927549709434985 -1.2968946138581956
internal_count=5600 4560 3556 2970 2128 1004 1842 946 1040 952 842 500 324 158 630 501 342 680 896 586 269 447 286 322 219 146 310 103 216 281 129 534 254 204 166 688 208 280 119 161 615 399 339 284 192 284 141 123 151 104 448 336 170 636 225 220 223 153 163 136 121 306
shrinkage=0.1
has_categorical=0


Tree=2
num_leaves=63
split_feature=27 26 24 22 3 22 13 27 22 26 27 26 24 0 9 27 12 4 22 22 24 22 22 24 14 7 2 18 9 1 4 26 7 27 19 8 0 13 7 0 24 27 21 11 13 24 4 18 13 6 7 22 18 27 7 0 13 9 1 3 19 23
split_gain=126.71795092470909 154.29662862866834 76.823906067873736 82.241342076731129 22.924491122150904 20.192179075872346 18.760602292261307 16.04427929443116 15.983523537590486 15.889125871402479 13.162795821603794 17.391191066673663 12.663110766191828 11.675095709873826 11.654833584884102 11.470755373028425 10.417818271947542 10.526810656348356 10.292085332021173 16.544470306297303 10.193616777197775 11.297367509457203 9.3154099373302959 9.1668736672256728 11.935432590318673 10.735087856578762 8.7287854668154594 7.7909617054800009 7.7852068006916042 7.6699469233647584 7.4244499008499218 14.19754023114019 6.9477661845073797 6.8113469374120115 7.6071373302608514 7.3529415958916804 6.4225941576409999 6.416156783896934 8.6605129579424123 6.006971560101821 7.4410471375493055 7.2347127095353017 10.316814829712088 6.6724824576048194 5.9077869516567638 5.7412912426677893 5.7373447254404084 5.5953206022221309 7.381044651768967 5.6049196209628036 5.5881285737837798 5.0779140448269038 4.9238859151297723 4.8056859091454314 4.7708543857168735 4.7320125525893459 8.2753372586874789 4.9658604915398694 4.6814980480916724 4.6646473191746409 4.6542276719284423 4.4740047524810826
threshold=0.90250000000000008 0.81150000000000011 1.0265 1.0445 2.0015000000000001 1.0705 1.3685 1.1775000000000002 1.0354999999999999 1.3665 0.84050000000000002 0.89250000000000007 0.79349999999999987 0.52950000000000008 1.2745 1.0885 9.9999996826552254e-21 -0.38550000000000001 0.74449999999999994 1.0465 0.73550000000000004 0.8015000000000001 1.9084999999999999 1.0754999999999999 0.54150000000000009 0.14550000000000002 -0.87150000000000016 0.48850000000000005 0.90349999999999997 -0.27050000000000002 -1.2845 0.86550000000000016 0.33749999999999997 0.75249999999999995 -1.2275 1.6299999999999999 0.79949999999999999 1.2635000000000001 0.1275 1.0575000000000001 1.4975000000000001 1.1125 0.90749999999999997 -0.64250000000000007 0.96150000000000002 1.2805 0.14550000000000002 -0.38500000000000001 1.1485000000000001 -9.9999996826552254e-21 0.030499999999999999 0.89850000000000008 0.037499999999999999 0.99049999999999994 0.80400000000000005 0.63050000000000006 0.90850000000000009 0.78749999999999987 -0.24250000000000002 0.85050000000000003 -0.087499999999999994 0.99550000000000005
decision_type=0 0 0 0 0 0 0 0 0 0 0 0 0 0 0 0 0 0 0 0 0 0 0 0 0 0 0 0 0 0 0 0 0 0 0 0 0 0 0 0 0 0 0 0 0 0 0 0 0 0 0 0 0 0 0 0 0 0 0 0 0 0
default_value=0 0 0 0 0 0 0 0 0 0 0 0 0 0 0 0 0 -1.7264999999999999 0 0 0 0 0 0 -2.5899999999999999 -1.7304999999999999 -1.7284999999999999 -2.3614999999999995 0 0 -1.7264999999999999 0 -1.7304999999999999 0 -1.7275 0 0 0 -1.7304999999999999 0 0 0 0 -1.7315 0 1.7976931348623157e+308 -1.7264999999999999 -2.3614999999999995 0 0 1.7976931348623157e+308 0 1.7976931348623157e+308 0 -1.7304999999999999 0 0 0 1.7976931348623157e+308 0 -1.7275 0
left_child=1 5 3 15 18 6 13 -6 10 12 14 -12 44 -1 30 20 33 51 -4 39 -2 -22 -11 24 25 -13 -14 -23 -19 36 31 -3 -7 34 -15 -36 -21 38 -31 40 41 42 -20 -41 -5 -38 -32 48 49 -10 -37 -18 -35 -45 59 -48 57 58 -57 -49 -28 -39
right_child=2 8 4 9 7 32 -8 -9 47 22 11 23 26 16 -16 -17 17 28 19 29 21 27 -24 -25 -26 -27 60 -29 -30 37 46 -33 -34 52 35 50 45 61 -40 43 -42 -43 -44 53 -46 -47 55 54 -50 -51 -52 -53 -54 -55 -56 56 -58 -59 -60 -61 -62 -63
leaf_parent=13 20 31 18 44 7 32 6 7 49 22 11 25 26 34 14 15 51 28 42 36 21 27 22 23 24 25 60 27 28 38 46 31 32 52 35 50 45 61 38 43 40 41 42 53 44 45 55 59 48 49 50 51 52 53 54 58 56 57 58 59 60 61
leaf_value=-0.081152272281522997 -0.016651467407664895 -0.055804978105559379 0.080380289178363401 0.034298903451444956 0.016169879353667618 0.019607701179572959 0.075389116429786379 -0.11677346628892529 0.088545781476008098 -0.097453268942962246 -0.051140784037531743 0.1080607129133032 0.066179237097593491 0.078694448182009144 0.12935409916951923 -0.15298130848937994 0.032250996034502509 -0.099810947014702528 -0.031677148124617048 -0.029273241640747689 -0.026524641215925487 -0.14974843053063844 0.0092395964077326802 0.091760246421249914 -0.034125911659374203 0.0016284223066551876 0.0072773958625062876 -0.075393180057218248 -0.011349792455922048 0.071116517584091585 0.092305930910523082 0.082617963133501851 0.11249926752225314 -0.089351043641698699 0.021443027338705858 -0.087256571068964478 0.090760921743338635 0.12171873280954837 -0.019079070102135748 0.014735221406910685 0.043010556740267492 -0.062692180081608373 0.066621351387617128 -0.012839828371217067 0.13078239257755361 0.0032750190660800664 0.023455246952463905 0.13444413212251077 0.13943231415984345 0.00028003726927389969 0.0012124639841442652 -0.044491312632826803 -0.0044045674864157799 -0.083254753544074481 0.17215463278015442 0.11999613950980487 0.1167825270978701 0.0091252827042459083 0.037328238078234564 0.073174501038155912 -0.064520470642000755 0.0483107397632484
leaf_count=181 58 54 92 50 59 92 66 96 66 85 79 86 53 53 140 207 67 164 107 100 56 177 54 147 82 69 72 84 53 98 370 67 50 57 181 58 51 77 76 73 132 87 72 61 52 74 116 123 54 52 57 72 53 108 64 50 105 82 62 85 73 59
internal_value=0 0.37684703674706105 -0.23216371410106265 -0.65272548624697591 0.069024639640352714 -0.18732524482352372 -0.28230865278732448 -0.65987876865915129 0.72640064510187896 0.0019215028458896765 0.6277824158905656 0.34568436346103104 0.26100978395493235 -0.35088677432074128 0.75276161236533046 -1.1490929331383264 -0.2485300396087784 -0.50612385923185266 0.15801815886352774 0.10741555573608925 -0.9397877291467478 -1.0817111625338218 -0.55996680128247955 0.52270771370550773 0.27835892791417649 0.60658221608063501 -0.034472590027890708 -1.2580223899747887 -0.78219813191028686 0.367633936486782 0.66946019938841617 0.2061393455222561 0.52291729384424557 -0.048911872949428906 0.088150647024454229 -0.037244196303030136 0.085840598254884951 0.57222653182035965 0.31723640596456776 -0.11027282165441038 0.04132644816829862 -0.15225323415510611 0.078659124667538965 -0.35943608671745791 0.83471310159451173 0.38900639063945774 0.74093773005829033 1.0618976196879379 0.77799705332874036 0.49636080436509045 -0.43416788542170631 -0.07505451020055777 -0.48427854692748168 -0.57830113506484992 1.2414866462505028 0.57873995811868884 0.71256770884488119 0.46683070041057945 0.74205960069028398 1.0936453586699939 -0.28873550510258 0.89868667285457438
internal_count=5600 3157 2443 1021 1422 1204 1062 155 1953 439 1509 463 300 996 1046 582 815 356 1267 1175 375 317 139 384 237 155 198 261 217 535 906 121 142 459 349 296 225 310 174 640 398 266 179 242 102 125 785 444 172 118 115 139 110 169 272 415 299 194 112 208 145 136
shrinkage=0.1
has_categorical=0


Tree=3
num_leaves=63
split_feature=27 26 24 22 5 5 3 22 27 24 26 0 5 26 24 27 5 26 8 26 14 27 10 5 5 17 24 22 3 10 15 24 22 5 24 15 17 22 22 3 2 9 19 27 2 18 19 17 9 9 5 6 22 3 23 0 9 2 26 7 5 9
split_gain=103.41699991288476 126.2797687242418 63.026169500965487 68.145546331506452 30.662187293238382 22.874634278012536 18.737959260970246 15.009624410538109 20.766820229108028 13.668309004525824 12.927179236194842 11.821179556097686 10.999504939312637 10.739356044559685 10.332664238366087 9.8575376320194152 9.2536227059185165 12.815818098074715 12.332404794106138 9.1663898706959159 11.603522784437912 16.593577539340728 10.394852332219489 9.0646538366295886 8.7526302405899248 8.5742503802164336 8.4974092592742068 9.4847062603963792 8.3357914758831004 9.8261320235874408 8.2838906728079866 8.1048357132553566 7.852459604976211 7.7396409400885045 7.6196406875946252 8.2667269546273783 7.5764800387803248 7.4163558914179646 7.4029223243214801 8.9569793360230179 7.0867392404453939 7.0386381563616052 6.8972606831722034 7.684473899473204 6.6716845932838638 6.65386445831912 6.5652430118521554 5.9293186254182224 5.8711843765389382 5.6677066977371453 5.5235274247186439 5.4342410688190625 5.3137628315480434 5.0672302920108727 4.9676709722974257 4.958971364026155 8.7320858577354166 5.7548620649903555 5.0133614225632819 4.8730740405818835 5.52329178158476 4.7488493032003234
threshold=0.90250000000000008 0.81150000000000011 1.0265 1.0445 0.82050000000000001 0.89650000000000007 1.9204999999999999 1.0605 0.83850000000000002 1.7064999999999999 1.3665 1.5645 1.3260000000000001 0.89850000000000008 0.79349999999999987 1.0885 1.1425000000000001 1.1955 9.9999996826552254e-21 0.72849999999999993 0.752 0.72449999999999992 -0.025500000000000002 1.5634999999999999 0.95250000000000012 0.71950000000000003 0.73550000000000004 0.8015000000000001 0.63450000000000006 0.66449999999999987 -0.30249999999999999 0.9395 1.7004999999999999 1.5394999999999999 0.71849999999999992 0.71750000000000003 0.73550000000000004 0.69249999999999989 0.95950000000000002 0.42750000000000005 -0.87150000000000016 0.8105 0.36849999999999999 1.1775000000000002 -0.27050000000000002 0.48850000000000005 0.64800000000000002 1.1015000000000001 0.75849999999999995 1.0665 1.2494999999999998 -0.34349999999999997 1.0125 1.3945000000000001 0.99249999999999994 0.7044999999999999 0.77550000000000008 -0.79949999999999999 0.87150000000000016 0.63250000000000006 0.61250000000000004 0.9265000000000001
decision_type=0 0 0 0 0 0 0 0 0 0 0 0 0 0 0 0 0 0 0 0 0 0 0 0 0 0 0 0 0 0 0 0 0 0 0 0 0 0 0 0 0 0 0 0 0 0 0 0 0 0 0 0 0 0 0 0 0 0 0 0 0 0
default_value=0 0 0 0 0 0 0 0 0 0 0 0 0 0 0 0 0 0 0 0 -2.5899999999999999 0 -2.7195 0 0 0 0 0 0 -2.7195 -1.7275 0 0 0 0 -1.7275 0 0 0 0 -1.7284999999999999 0 -1.7275 0 1.7976931348623157e+308 -2.3614999999999995 -1.7275 0 0 0 0 -2.7565 0 0 0 0 0 -1.7284999999999999 0 -1.7304999999999999 0 0
left_child=1 4 3 15 11 7 16 8 25 30 14 19 28 -10 -5 26 24 -18 33 34 21 22 -21 37 -4 46 -2 -28 44 41 -8 -15 -12 -19 35 51 -9 -7 39 -39 -16 -30 43 -26 -6 -29 61 -42 -23 -40 53 -1 -20 -41 -33 56 -27 -57 -59 60 -36 -3
right_child=2 5 6 10 12 23 9 36 13 -11 32 -13 -14 31 40 -17 17 18 52 20 -22 48 -24 -25 42 55 27 45 29 -31 -32 54 -34 -35 59 -37 -38 38 49 50 47 -43 -44 -45 -46 -47 -48 -49 -50 -51 -52 -53 -54 -55 -56 57 -58 58 -60 -61 -62 -63
leaf_parent=51 26 61 24 14 44 37 30 36 13 9 32 11 12 31 40 15 17 33 52 22 20 48 22 23 43 56 27 45 41 29 30 54 32 33 60 35 36 39 49 53 47 41 42 43 44 45 46 47 48 49 50 51 52 53 54 57 56 58 58 59 60 61
leaf_value=-0.015079799537569188 -0.015001843529992077 0.024172266806515866 0.015623740338868916 0.075567986209924831 0.11077217473306143 0.14240964868772318 -0.067091589614720185 0.030857433543030544 -0.082112727789270132 -0.12563518860768394 -0.10414300422559397 0.041596251868827039 0.10080336826754949 -0.043310273550598417 0.059748374325191811 -0.14074745116497225 0.077825399104809304 0.007367791013531297 -0.052605047854982927 -0.043919005243441896 0.050725196893143192 -0.045600677945897956 0.084974135210196311 0.15081534922315554 -0.023391034644299247 -0.022171959314445364 -0.023907539635497969 -0.13747623248488691 -0.078110500016978654 0.05922311262896373 0.044660471672308216 0.0028004737246979461 -0.0078506590652857693 0.11377033569200463 -0.037715995248372269 0.021879725758590752 0.12298156287851421 -0.0020844894561650889 0.11675135645863943 0.07408330790008795 0.0061388557588603057 0.013416467240122196 0.013750860393398701 -0.11782450943589895 0.016316670147786549 -0.068379350384176973 -0.021682259830050371 -0.077103915565210346 -0.13003647704853225 0.060820585072147604 0.13357698397813106 -0.092560836215672668 0.01067249271123062 0.003690250241585178 0.090448487362630392 0.14900113294181472 0.088038423938449295 0.035226056126620116 0.10608505035034375 -0.13327044738646704 -0.11809556600491043 0.094475158718857297
leaf_count=58 58 115 491 102 50 77 53 50 70 69 62 67 71 67 53 207 185 50 92 51 72 66 50 88 97 50 56 177 83 55 54 53 77 62 86 64 133 80 231 247 89 57 87 54 76 84 80 56 67 109 52 98 128 50 52 56 70 74 90 75 58 59
internal_value=0 0.34143835408261619 -0.21030767369586451 -0.59360806177205572 -0.16910501682719603 0.65947161124271803 0.062294321959355282 0.4509494466883221 0.33696364385345767 -0.5528643285805781 0.0017528749286220217 -0.39203058514259465 0.29165500710392056 -0.15908509013136429 0.235627201629488 -1.050185762610039 0.14870799828450981 0.35444128590681073 0.11828872747991981 -0.46475267284909688 -0.19785192646194646 -0.41490392181439972 0.19886660276241463 0.88838614820004214 0.0031822424221545674 0.5401421757433188 -0.85573183064015546 -0.98678364593027534 0.13390892659168058 -0.12580242584111714 -0.10536162512059255 0.11185001034774857 -0.50623633238764265 0.66227318327894957 -0.65082832440536009 -0.38750043033501314 0.97603775192784925 0.82436006032550768 0.7646344217127321 0.58844654422276443 -0.031038891727913857 -0.40808672619384595 -0.31271526072802075 -0.57200465178816973 0.53626889593872351 -1.1504848350782106 0.26036720180132256 -0.25996773554037145 -0.88125423095363187 0.98777945607317574 0.72816199379707625 -0.63695791758400178 -0.1574061389201156 0.62195287306931113 0.46191080515798338 0.7498011549193131 0.42060594105552546 0.93008195947341366 0.73971862481822792 -0.91690354053811851 -0.70024591957467253 0.48008561334798272
internal_count=5600 3157 2443 1021 1204 1953 1422 1019 836 176 439 812 392 242 300 582 1246 517 332 745 306 234 101 934 729 594 375 317 321 195 107 172 139 112 439 220 183 846 769 429 198 140 238 151 126 261 254 145 133 340 349 156 220 297 105 340 120 220 164 219 144 174
shrinkage=0.1
has_categorical=0


Tree=4
num_leaves=63
split_feature=25 25 26 27 25 5 26 25 9 27 13 9 6 20 22 27 5 13 22 21 0 24 14 10 27 19 11 19 14 22 14 5 10 22 23 2 26 2 21 18 27 25 5 14 18 14 25 26 19 17 14 25 5 25 22 21 1 10 9 11 0 27
split_gain=154.57256512800018 108.20268440745399 61.007992117880036 53.71618994885938 31.662267921691509 26.544779705507246 21.150833117692684 23.458722101624353 19.391837639237622 18.425088983323619 17.853327774687564 15.101922981768457 15.161776170066563 14.722687393782209 14.114369994285511 13.478842806935971 15.127926990378684 12.238843201050869 15.084081260497445 11.90625604482004 11.162148475892566 11.55315442328831 10.860290908231539 10.596961038862339 10.57444046373238 10.062982559073177 9.6736411918755678 9.2554172854911165 8.7301092884157967 8.6201003947671833 8.3867838008627942 8.3008946651047246 8.246741630000832 7.6458031676055924 7.9385108964976681 7.3946347130231054 7.3513001216550151 7.0323568286360745 6.8951906835634986 10.571027352459698 7.3001668651674967 6.8464664355618083 6.6033775243934603 7.3859798263790291 6.6126691092068475 6.567529886997491 6.5527550107348134 6.2330095680958735 6.1606725978745374 8.0815599309047137 6.125472554815488 6.0620934137982356 5.9718470588501731 5.5771621572437091 8.2290483279590951 5.4282523817308572 5.2779562017145327 5.2227520660693827 5.1433445468493826 4.8059888520653793 4.7599133485807039 4.6989076617728145
threshold=1.0565 0.66949999999999998 0.77249999999999996 0.90450000000000008 1.4914999999999998 0.8125 0.86950000000000016 0.94550000000000001 1.1375000000000002 0.79049999999999998 1.5015000000000001 1.3035000000000001 -1.5385 2.3264999999999998 1.0065 1.0335000000000001 1.0145 1.3005 0.78449999999999998 0.91949999999999998 1.2284999999999999 1.0305 -0.28250000000000003 -1.3165 0.85050000000000003 0.60250000000000004 -0.36849999999999999 1.1445000000000001 0.77350000000000008 1.0145 0.20050000000000001 1.0895000000000001 0.0395 1.1194999999999999 0.98550000000000004 -0.33299999999999996 0.99350000000000005 0.69550000000000001 1.1205000000000001 -0.30249999999999999 0.98449999999999993 0.98449999999999993 1.0954999999999999 -0.32550000000000001 0.17350000000000002 -0.38750000000000001 0.79549999999999987 0.67449999999999988 -0.73150000000000004 0.85250000000000004 -0.50150000000000006 0.53750000000000009 0.5605 0.87650000000000006 1.0514999999999999 0.95150000000000001 0.21150000000000002 -0.077500000000000013 0.79649999999999999 -0.24200000000000002 0.9205000000000001 1.0834999999999999
decision_type=0 0 0 0 0 0 0 0 0 0 0 0 0 0 0 0 0 0 0 0 0 0 0 0 0 0 0 0 0 0 0 0 0 0 0 0 0 0 0 0 0 0 0 0 0 0 0 0 0 0 0 0 0 0 0 0 0 0 0 0 0 0
default_value=0 0 0 0 0 0 0 0 0 0 0 0 -2.7565 0 0 0 0 0 0 0 0 0 -2.5899999999999999 -2.7195 0 -1.7275 -1.7315 -1.7275 -2.5899999999999999 0 -2.5899999999999999 0 -2.7195 0 0 1.7976931348623157e+308 0 -1.7284999999999999 0 -2.3614999999999995 0 0 0 -2.5899999999999999 -2.3614999999999995 -2.5899999999999999 0 0 -1.7275 0 -2.5899999999999999 1.7976931348623157e+308 0 0 0 0 -2.2625000000000002 -2.7195 1.7976931348623157e+308 -1.7315 0 1.7976931348623157e+308
left_child=1 8 5 6 10 28 7 9 17 50 13 12 -5 14 15 16 48 18 37 24 23 -22 -10 -14 29 -12 -16 42 52 45 -11 38 -24 -6 -35 -7 -26 60 39 -25 -41 46 43 -21 -45 -20 57 -47 -2 -50 -4 -49 -3 -13 -55 -48 -28 -8 -59 -15 -1 -23
right_child=4 2 3 11 33 35 41 -9 22 30 25 53 20 59 26 -17 -18 -19 19 27 21 61 32 31 36 -27 56 -29 -30 -31 -32 -33 -34 34 -36 -37 -38 -39 -40 40 -42 -43 -44 44 -46 47 55 51 49 -51 -52 -53 -54 54 -56 -57 -58 58 -60 -61 -62 -63
leaf_parent=60 48 52 50 12 33 35 57 7 22 30 25 53 23 59 26 15 16 17 45 43 21 61 32 39 36 25 56 27 28 29 30 31 32 34 34 35 36 37 38 40 40 41 42 44 44 47 55 51 49 49 50 51 52 54 54 55 56 58 58 59 60 61
leaf_value=-0.048141982237686551 -0.092311038012821395 -0.037558180967138977 0.067451921023329059 -0.086103368863268914 -0.089498252914115436 0.11196814838927299 0.12125227830615803 -0.037035656736380769 0.092775423406449675 -0.04511067778152323 0.0041970264970492997 0.11600999349430458 -0.039670877094635904 -0.043109558546782334 -0.029675500169680482 -0.10303290442141877 0.053421635795901069 0.039463389346043189 -0.019399474033785554 0.035072343695486924 -0.078634151278131739 0.062802038865526336 -0.056714197329230776 0.1191446358858777 -0.14046299059457543 0.11446101415487689 0.094636585071182333 -0.094809105817721756 0.012067823010686275 0.024068112436025409 0.068294916865668548 0.094470509728982799 0.04154497543919497 0.024176269949413447 -0.066901715876595241 0.012860513506700406 -0.046696556143825563 0.066861296504021089 -0.016971189029693533 -0.039232887045335285 0.054738670702177354 0.064134625104059248 0.060386047999727958 -0.090490584868620216 -0.0037105238006245019 -0.14343618283920775 0.14161688410632362 -0.10525861007453269 -0.056893161125205843 0.038988289510335748 0.13079370530939913 -0.0080069441391587906 -0.11142800959733781 -0.011122352472821374 0.095276651980630983 0.087882774591726054 0.015146031472350583 0.10181524532432673 0.01281459938712555 -0.1117481287403822 0.02443749780994026 -0.020127712598783116
leaf_count=72 75 74 97 54 496 51 111 84 88 55 87 90 58 71 82 101 87 102 92 71 75 59 57 66 106 55 73 52 51 58 51 130 89 53 146 76 50 68 80 51 97 103 55 67 76 53 442 54 98 56 179 50 112 52 69 96 63 55 53 100 74 52
internal_value=0 0.30775404597042633 0.54771192869348195 0.67258446139260875 -0.42971002456751939 -0.21718105564631762 0.93799208294327652 0.59194907169457944 -0.15825422505487388 0.80632748785538577 -0.19096840378461499 0.30399104834770418 0.16582463391146565 -0.30693105973961771 -0.16579782167071735 -0.38342426206665325 -0.18034052575351994 -0.27008156561933455 -0.33793658333348181 -0.46754738415885705 0.24872398221229483 -0.17112623122047402 0.36898830959658413 0.41004190006698121 -0.67435995082298861 0.4687633971674921 0.24871495946335223 -0.16960794658847655 -0.61669356250203788 -0.45788352192380338 0.094157286545244911 0.5203680865221022 0.031272521609614461 -0.75927183177199131 -0.42601108501664336 0.5240238111471538 -1.1026387143235983 0.13474499715500432 0.33359383990255664 0.52197036457544399 0.22359063148723751 1.1294597968157574 -0.019439863720844077 -0.17906563728378011 -0.44291909381455113 -0.62075828171081493 1.1977095100343873 -0.87124283325456209 -0.4514709216783977 -0.22071336193404709 1.0845308486034022 -0.58533615781355797 -0.81995849989254721 0.77950372508305621 0.49635149423574865 1.3198766181940813 0.57795170588727385 0.90022632180520645 0.58161707439603738 -0.83252148893421196 -0.11386822395333004 0.23938197046260729
internal_count=5600 3957 2623 2259 1643 364 1326 466 1334 382 948 933 722 806 635 417 316 1100 998 784 668 186 234 482 463 142 218 321 237 307 106 424 146 695 199 127 156 214 294 214 148 860 269 214 143 249 757 157 229 154 276 104 186 211 121 538 136 219 108 171 146 111
shrinkage=0.1
has_categorical=0


Tree=5
num_leaves=63
split_feature=25 25 26 25 21 5 25 24 24 5 5 21 21 7 9 9 5 21 9 3 24 21 1 26 19 1 2 3 4 5 3 5 14 26 5 7 0 23 10 10 25 0 21 15 10 0 0 2 1 11 7 11 10 19 15 10 11 15 0 3 7 8
split_gain=120.61060150131208 83.247676835172015 50.587531172625376 28.777768126093392 24.981351784362403 20.180486295958861 20.025775567473261 18.562938883439124 18.98173514280813 18.343006368649107 17.222099830441891 14.003735174306058 12.803974091411638 11.654918569706712 10.739321900941633 16.821416138279261 9.7972847203561777 12.019728541095116 9.7192029438464296 9.6657336336977693 9.6347007670112887 9.5630135535080889 9.4802402594175916 9.390020748631553 9.2465674254182453 9.034559088738515 9.0266507935592895 8.2705457228024901 7.8661670795579308 7.7383924598966161 12.813150084851223 7.2062214354847223 6.8485985948831143 6.6166896072157311 7.3295625588368463 9.0226202137737079 6.5837840902898961 6.569135346440012 6.7893710401563485 6.4215550410946349 6.3587119892641226 7.5692450876651094 6.2011001673766586 6.1633362352023227 6.1372599069147844 5.9699171901109978 6.7019754561899054 5.8849789274478006 5.7171718457904142 6.8379198845604954 9.9300344857820981 5.6292729413618421 5.6216563578284227 5.5515475117416742 5.1552520785995251 4.8596873174880466 4.8105354614895752 4.7664764509578372 4.6786243675329882 4.5492630317379907 4.4914319109631986 6.3155870190575278
threshold=1.0674999999999999 0.68249999999999988 0.77649999999999997 1.5585 1.0625 1.3365 0.99249999999999994 0.97750000000000004 0.74249999999999994 0.8015000000000001 0.73849999999999993 1.0994999999999999 0.85150000000000015 1.2635000000000001 0.95650000000000013 0.6895 1.4564999999999999 0.71449999999999991 1.1555 1.8334999999999999 1.4975000000000001 0.62749999999999995 0.9395 0.9205000000000001 1.0234999999999999 0.57400000000000007 -0.29450000000000004 0.74950000000000006 -0.088499999999999995 0.88650000000000007 1.2424999999999999 1.0145 0.79899999999999993 1.0855000000000001 1.3045 -0.48350000000000004 1.6975000000000002 1.0905 0.0275 -0.30549999999999999 2.0800000000000001 1.0865 0.81850000000000001 0.85850000000000004 0.17250000000000001 1.0375000000000001 0.73950000000000005 1.1019999999999999 1.1635 0.82350000000000012 -0.23650000000000002 -0.16350000000000001 -0.014499999999999999 -0.56750000000000012 0.13750000000000001 0.251 -0.29750000000000004 0.45350000000000001 0.87550000000000017 0.6915 -0.15450000000000003 1.6299999999999999
decision_type=0 0 0 0 0 0 0 0 0 0 0 0 0 0 0 0 0 0 0 0 0 0 0 0 0 0 0 0 0 0 0 0 0 0 0 0 0 0 0 0 0 0 0 0 0 0 0 0 0 0 0 0 0 0 0 0 0 0 0 0 0 0
default_value=0 0 0 0 0 0 0 0 0 0 0 0 0 -1.7304999999999999 0 0 0 0 0 0 0 0 -2.2625000000000002 0 -1.7275 -2.2625000000000002 -1.7284999999999999 0 -1.7264999999999999 0 0 0 -2.5899999999999999 0 0 1.7976931348623157e+308 0 0 -2.7195 -2.7195 0 0 0 -1.7275 1.7976931348623157e+308 0 0 -1.7284999999999999 -2.2625000000000002 -1.7315 -1.7304999999999999 -1.7315 -2.7195 -1.7275 1.7976931348623157e+308 -2.7195 -1.7315 1.7976931348623157e+308 0 0 0 0
left_child=1 5 9 7 6 12 14 8 59 32 44 42 21 16 15 29 17 -9 31 20 40 -1 23 25 48 27 28 -14 -19 30 -4 -8 45 -12 35 -35 -16 38 51 -7 41 60 56 -23 -6 46 -3 -28 49 53 -51 -29 -24 -17 -11 -25 -10 -55 -26 -2 -5 -62
right_child=3 2 4 19 10 39 18 13 11 54 33 -13 22 -15 36 24 -18 26 -20 -21 -22 43 52 55 58 -27 47 37 -30 -31 -32 -33 -34 34 -36 -37 -38 -39 -40 -41 -42 -43 -44 -45 -46 -47 -48 -49 -50 50 -52 -53 -54 57 -56 -57 -58 -59 -60 -61 61 -63
leaf_parent=21 59 46 30 60 44 39 31 17 56 54 33 11 27 13 36 53 16 28 18 19 20 43 52 55 58 25 47 51 28 29 30 31 32 35 34 35 36 37 38 39 40 41 42 43 44 45 46 47 48 50 50 51 52 57 54 55 56 57 58 59 61 61
leaf_value=0.0041216856374944591 0.067969618003835525 -0.082458632700459555 0.097809283755070878 -0.017738923440588198 -0.088170690190483 0.004191246699734575 -0.043482433682109328 0.060456898988398337 -0.092919926657790419 0.082296443055920321 0.070087198170540974 0.014081409862220218 0.041563930006132455 0.087644547082941782 0.10822672662954105 0.12710337456528153 0.066261311181915208 -0.051261881735825479 0.083524240325527341 -0.15619340877017543 -0.0064044218614015477 -0.08469960275189764 -0.10953687633356027 -0.011459119665849324 0.028048586521442917 0.088697898021039001 -0.087134342639639747 -0.022876723367754086 0.05153886424524598 0.12516072419768862 -0.0053994567219455142 0.0481685195453396 0.011781472448578729 -0.080694891670801183 0.064973059262649277 0.031909466046113305 0.033348189875358293 0.038244482808253821 0.012121306197280779 0.087293699187584117 -0.11994628212175054 -0.11243744936155962 -0.107039558327303 -0.022489181541777203 0.0038801754621483526 -0.12571695138747849 0.010852625479568549 -0.0087476916301577126 -0.0062176631307650637 0.086037563897865266 -0.039515073338535212 -0.11553348915385885 -0.025498216197498719 0.093949881766219767 0.0013486356214429016 -0.082872266748674414 -0.017708395939980314 0.012596147753012821 -0.058433038496082348 -0.011149288555432919 -0.017609375507845786 -0.10664719807142869
leaf_count=97 55 86 195 120 67 64 104 68 63 62 171 73 162 66 532 84 70 52 59 57 91 240 50 102 53 63 122 53 72 195 67 53 51 50 75 68 54 63 68 94 116 100 196 89 53 58 50 57 56 52 53 54 93 70 66 62 78 53 52 64 54 83
internal_value=0 0.25991949575704137 0.47576052105983885 -0.39221258620299743 0.5939418082663146 -0.14401557850220684 0.7099035526010119 -0.18724914122134417 -0.45335482074648847 -0.21208587527808853 0.1882872273696336 -0.6609924521248719 -0.23325684903511715 0.087493889099726316 0.79430155415815673 0.65755285056602364 -0.03075978409368289 -0.16082160250133307 0.13538089451775845 -0.74023597361151849 -0.66156968819454109 -0.51403231411748751 -0.078121795984932227 0.028608314421165786 0.38744211598976974 0.17587106954053358 -0.33248780652635634 0.064161206485822089 0.085052050997266121 0.93893352221194448 0.71062094956075716 -0.12714338963576063 -0.53767155667258593 0.40809718377021614 0.15326830681253345 -0.15809399237428423 1.0123884572392299 -0.17523878240786495 -0.37670775346542162 0.53603333288098221 -0.77972518876393571 -0.64676352861780007 -0.83607349160888611 -0.67866595008384978 -0.47534942973743477 -0.712560319136883 -0.4801165986375206 -0.62181200739968101 0.54012242840245617 0.64811264174042504 0.22433908446405904 -0.69417453788419825 -0.54725360984437299 0.86459801702161065 0.40536606417753396 -0.38478134549268495 -0.51285564605668588 0.58772388421783561 -0.14886744511054809 0.25542778399232824 -0.46360613190546751 -0.71451192298095134
internal_count=5600 3943 2589 1657 2216 1354 1732 1036 529 373 484 410 1196 507 1516 930 441 371 216 621 564 426 770 627 473 463 303 400 124 457 262 157 245 364 193 118 586 238 175 158 473 357 337 329 120 194 136 179 368 312 105 107 143 207 128 164 141 123 105 119 257 137
shrinkage=0.1
has_categorical=0


Tree=6
num_leaves=63
split_feature=27 5 26 24 27 22 24 22 27 22 24 26 22 17 8 26 5 0 27 9 8 9 24 9 17 6 6 13 17 24 26 22 17 0 22 14 27 9 18 26 6 23 9 2 5 22 22 8 9 22 9 22 13 13 9 10 5 5 23 6 19 0
split_gain=70.835398455157616 65.215832966738944 25.411468451851871 23.387642275193031 21.237607030570786 22.345599461352808 27.717936786930281 19.970623251329961 15.586983197817281 13.526918293139286 13.538064730020334 11.60518796116493 10.956734415241753 13.121725190237925 10.854941469286672 10.646195453002219 9.8718268913682934 10.023381557569333 9.3365823035529019 9.2064506851146213 13.996043291976973 9.7146364666189378 9.2051708082900596 8.2518479572252748 7.9641315773739034 7.744756418447821 8.1595419948637584 7.4778433868696368 8.0410757320647583 7.3620281026630128 7.6397010790063122 6.9957524686899788 6.9037124243963035 7.1491489494998675 6.8120994481212591 6.4702055851653668 6.4127528249367831 6.3789595066207907 6.3170837665126562 8.8325573419133043 6.2815603024526645 6.207277139692037 6.162975663311137 5.9862659978951873 8.1909591369411885 5.9273375906319927 8.6352722656171323 5.9144007565394112 10.886127117762486 5.7511470925959225 5.1499652972931038 7.0964658076854477 6.5752087058742683 5.3937723914831457 5.0519124206656238 5.6193444780925237 5.3210426718674908 5.004511551313505 4.8183394383046743 4.7676535857874214 4.6848097368417134 4.4366618518336765
threshold=1.0105 0.88149999999999995 0.86050000000000004 0.99350000000000005 0.90650000000000008 1.0705 1.0794999999999999 1.0024999999999999 0.84050000000000002 1.0605 0.99649999999999994 0.8085 0.72750000000000004 0.76449999999999996 1.6299999999999999 0.97249999999999992 1.5125 1.2934999999999999 0.75449999999999995 1.3254999999999999 1.6299999999999999 0.59349999999999992 0.79949999999999999 0.90749999999999997 0.75849999999999995 1.2174999999999998 0.95250000000000012 1.3595000000000002 0.66949999999999998 0.73550000000000004 0.72849999999999993 0.9305000000000001 0.73550000000000004 0.78949999999999987 1.5529999999999999 -0.80449999999999999 0.94050000000000011 0.78749999999999987 0.025500000000000002 0.72449999999999992 -0.25950000000000001 0.99150000000000005 1.1274999999999999 -0.9205000000000001 1.0815000000000001 0.75750000000000006 0.99049999999999994 9.9999996826552254e-21 0.86250000000000004 0.93850000000000011 0.65549999999999997 0.99449999999999994 0.68049999999999988 0.72150000000000003 1.1274999999999999 -0.15250000000000002 1.1815000000000002 0.58450000000000002 0.99449999999999994 0.050500000000000003 0.34549999999999997 1.3475000000000001
decision_type=0 0 0 0 0 0 0 0 0 0 0 0 0 0 0 0 0 0 0 0 0 0 0 0 0 0 0 0 0 0 0 0 0 0 0 0 0 0 0 0 0 0 0 0 0 0 0 0 0 0 0 0 0 0 0 0 0 0 0 0 0 0
default_value=0 0 0 0 0 0 0 0 0 0 0 0 0 0 1.7976931348623157e+308 0 0 0 0 0 0 0 0 0 0 -2.7565 -2.7565 0 0 0 0 0 0 0 0 -2.5899999999999999 0 0 -2.3614999999999995 0 -2.7565 0 0 0 0 0 0 0 0 0 0 0 0 0 0 -2.7195 0 0 0 -2.7565 -1.7275 0
left_child=1 2 12 7 11 6 31 61 18 10 42 16 13 -1 -5 -12 17 43 -4 21 41 -16 -9 -23 -11 26 45 28 38 30 49 -6 33 -20 -24 -34 -8 -17 -14 -40 -7 -21 -10 -3 -45 -13 47 -47 -49 -30 52 53 -31 -52 55 -25 -56 -54 -55 -48 -22 -2
right_child=3 4 8 14 5 40 36 22 9 24 15 25 27 -15 19 37 -18 -19 32 20 60 23 34 54 -26 -27 -28 -29 29 50 -32 -33 35 -35 -36 -37 -38 -39 39 -41 -42 -43 -44 44 -46 46 59 48 -50 -51 51 -53 57 58 56 -57 -58 -59 -60 -61 -62 -63
leaf_parent=13 61 43 18 14 31 40 36 22 42 24 15 45 38 13 21 37 16 17 33 41 60 23 34 55 24 25 26 27 49 52 30 31 35 33 34 35 36 37 39 39 40 41 42 44 44 47 59 48 48 49 53 51 57 58 56 55 56 57 58 59 60 61
leaf_value=-0.016321621677776437 -0.0880733014420505 -0.027431298226615154 -0.029264050261047232 -0.068169076370150058 -0.10278671488317576 0.031070506413014728 -0.0041784019844973508 0.020216135525631711 -0.087923175077808294 -0.01694591514057478 -0.051643404830137907 0.11161037222833819 -0.088141532847386753 0.11438806818819186 0.039496803490810514 0.091207365934570572 0.10855012182590949 -0.064212109280644275 -0.017422910306034312 0.090948399857957399 -0.052404793438749923 -0.060830126895180595 -0.08905650266076473 0.055839882457585949 0.081017614540953659 0.010370995453084383 0.15680060759157285 0.028761520059042353 -0.057992720146512744 0.042939420474870746 0.053443124648012236 -0.02247449580541077 0.021389796133460936 0.069893358752019019 -0.012486576609387524 0.10267306849420864 0.079109341111158152 0.0069688498744213921 -0.080555660737654883 0.017760110719584558 0.123835313655208 0.015866196964156233 -0.0032045687138489002 0.016507518375111118 0.1131010747590686 0.083674177614758302 0.11585807375142543 0.064304780803006029 -0.016892050642843746 0.024528895031646986 -0.079837303897530715 -0.11601607170457549 0.0056450158019571298 -0.041775473228943358 -0.0010557449590514305 -0.018670388144270311 -0.08841276337470412 -0.080789013593229403 0.037341869461702516 0.062309997069165984 0.023714428575333298 -0.14605179600831381
leaf_count=85 162 50 54 127 105 50 61 101 124 50 73 155 166 50 94 64 54 54 74 107 93 218 110 73 108 75 55 84 79 63 91 80 54 83 85 182 99 87 74 76 74 79 50 93 58 137 175 173 115 61 77 60 53 86 62 95 53 58 50 120 52 90
internal_value=0 0.20569270182752733 -0.026428113570790043 -0.301399992354621 0.49827208568024556 0.12847478076617064 -0.13877545971558319 -0.64791792065340936 0.21498968056001752 -0.010625993015148365 -0.20941709577334627 0.63346182896039183 -0.22300513754571086 0.32055864193135997 -0.12667472592944748 0.11870284245113333 0.29254116037553846 0.12784118641305769 0.50246547831155375 -0.050513904377318869 0.22148635375261352 -0.20040578798823333 -0.29507375073169573 -0.31248476020116778 0.49473756241919326 0.74288700391538265 0.79433847781923461 -0.29130228908912409 -0.34056676584584555 -0.21608411351885776 0.076678003620900853 -0.68147152338820693 0.61358667915904852 0.28316189968569877 -0.55345557537572321 0.83893595363234974 0.47357230980728415 0.42546212070931794 -0.6078971319685994 -0.30705170505925894 0.86368630502428723 0.59046815234623218 -0.63637995478443998 0.3358358416661385 0.5349388743224992 0.74594955645664052 0.6678841079778669 0.48096659073562387 0.31557097324387584 -0.21885612961959661 -0.36861441701902281 -0.54226945489734224 -0.095011400007702682 -0.36906011121704746 -0.084805294647600393 0.13830347135634563 -0.41186359171444548 -0.39294327372371018 -0.12646638340039337 0.94060354069451235 -0.25131515620946654 -1.0850255003623575
internal_count=5600 3999 2216 1601 1783 469 345 548 1003 556 398 1314 1213 135 1053 224 309 255 447 926 331 595 296 501 158 1005 930 1078 994 678 231 185 393 157 195 236 160 151 316 150 124 186 174 201 151 875 720 425 288 140 447 273 174 213 283 168 115 111 136 295 145 252
shrinkage=0.1
has_categorical=0


Tree=7
num_leaves=63
split_feature=25 25 5 26 25 0 3 5 25 3 25 5 20 14 3 0 7 26 5 24 0 24 9 0 1 24 17 25 26 0 7 13 2 9 10 23 10 25 18 19 2 9 10 6 24 14 9 15 25 0 5 9 5 6 2 0 2 7 0 5 15 15
split_gain=94.537116670245496 54.199191757972578 34.844904250018232 22.613032344599805 27.110528881125074 21.381828014727205 17.804303514092439 16.578911436431909 15.119249287581113 13.251465322667769 13.094573075339554 14.324352359986559 11.489462634495183 10.836060716460942 10.834701021778272 9.6237126104306512 8.8645519669634574 8.6736914908003158 8.6172339410944758 8.991633483707707 8.1256310634325519 8.0612829312700853 7.9562439736190811 10.29870622977603 8.5861803197394266 7.578737186167162 12.062378991740658 9.9889828758811667 8.6292356746827927 7.2595100945870197 7.2536428033847855 7.1241762441195746 8.8109361464686167 6.4531376249000481 11.00206365904295 6.425966614429929 6.0398596661267465 5.8304847793070174 5.7944444710533149 6.3581643032780013 9.1212707108884779 5.6176605363184535 5.9443550753267971 5.5904884062052176 5.586170761869135 5.4912729995526171 6.0733812674978012 5.2249939879235416 5.1152867959026693 5.6389919015537657 5.2710395609941632 5.0447464280353067 5.0330335642150255 5.0707039172821151 5.0080233651669985 4.9042137438538056 4.8228186925324081 4.8076953752551681 4.5978732928827704 4.4278658297520259 5.9655039529898204 4.0656469307030765
threshold=1.1785000000000001 0.66549999999999998 0.88149999999999995 0.77649999999999997 0.96550000000000002 2.4064999999999999 1.8334999999999999 1.3505 0.99249999999999994 2.1315 1.5585 0.88650000000000007 2.3264999999999998 0.0115 0.91850000000000009 1.1945000000000001 1.2635000000000001 0.86950000000000016 0.95950000000000002 0.95350000000000001 1.0375000000000001 1.4975000000000001 0.6895 1.746 -0.66749999999999998 0.74849999999999994 1.0865 0.50849999999999995 0.71550000000000002 0.53849999999999998 -1.4104999999999999 0.94050000000000011 -0.086999999999999994 0.96649999999999991 0.13550000000000001 0.98950000000000005 -0.059499999999999997 0.40550000000000003 -0.94850000000000012 0.74049999999999994 0.76249999999999996 1.5710000000000002 -1.0874999999999999 -0.42450000000000004 1.1855000000000002 0.42050000000000004 0.80049999999999999 -0.46150000000000002 2.1219999999999999 1.1074999999999999 1.3155000000000001 0.99049999999999994 1.4124999999999999 0.045499999999999999 1.1925000000000001 0.99550000000000005 0.82350000000000012 0.26300000000000001 0.75950000000000006 1.0365 -1.1895000000000002 0.16450000000000001
decision_type=0 0 0 0 0 0 0 0 0 0 0 0 0 0 0 0 0 0 0 0 0 0 0 0 0 0 0 0 0 0 0 0 0 0 0 0 0 0 0 0 0 0 0 0 0 0 0 0 0 0 0 0 0 0 0 0 0 0 0 0 0 0
default_value=0 0 0 0 0 0 0 0 0 0 0 0 0 -2.5899999999999999 0 0 -1.7304999999999999 0 0 0 0 0 0 0 0 0 0 0 0 0 -1.7304999999999999 0 -1.7284999999999999 0 -2.7195 0 -2.7195 0 -2.3614999999999995 -1.7275 -1.7284999999999999 0 -2.7195 -2.7565 0 -2.5899999999999999 0 -1.7275 0 0 0 0 0 -2.7565 -1.7284999999999999 0 -1.7284999999999999 -1.7304999999999999 1.7976931348623157e+308 0 -1.7275 -1.7275
left_child=1 7 3 20 14 8 10 25 9 22 11 33 45 43 15 -5 18 -17 -13 55 29 48 -4 24 35 26 27 37 -29 -3 -27 54 -33 -2 -35 -24 -9 47 -16 40 44 42 -26 -6 61 46 -10 -1 49 50 56 58 53 -21 59 -20 -12 -31 -15 60 -32 -40
right_child=6 2 5 4 13 -7 -8 36 12 -11 21 16 -14 51 38 17 -18 -19 19 52 -22 -23 23 -25 41 30 -28 28 -30 57 31 32 -34 34 -36 -37 -38 -39 39 -41 -42 -43 -44 -45 -46 -47 -48 -49 -50 -51 -52 -53 -54 -55 -56 -57 -58 -59 -60 -61 -62 -63
leaf_parent=47 33 29 22 15 43 5 6 36 46 9 56 18 12 58 38 17 16 17 55 53 20 21 35 23 42 30 26 28 28 57 60 32 32 34 34 35 36 37 61 39 40 41 42 43 44 45 46 47 48 49 50 51 52 53 54 55 56 57 58 59 60 61
leaf_value=0.030550193611575394 -0.085121007269969476 -0.076593828714274226 0.1150788402995564 0.089747299223259858 -0.030931683977634579 -0.072226724337234385 -0.12434304681038844 0.007545151897016239 0.024052280260843339 -0.017438446910262348 -0.079175818059153191 0.069382770078441028 -0.032582753949477461 -0.11822859446480627 0.074816519953165697 -0.036443704628845774 0.080774882704163414 0.065272990113338203 -0.024653921170263549 0.024716316307748943 -0.083760697768882578 -0.0039291147415122336 0.078821599075912241 -0.016124968161151384 0.01632858741614426 0.027746258783793321 0.073314391197175185 -0.028492993595950068 0.073141504973689389 0.040493746966970931 0.005776260105420707 -0.053567988914888759 0.029415930241783447 0.044439525634399457 -0.077921278252786705 0.003564090253920927 0.090552090819199571 -0.091311472190316753 -0.043730447945292454 0.056425650943686262 0.045003613040627305 0.1399375282117824 0.091218120543635706 0.042036103511590435 -0.090547716394161121 0.00777536682673365 0.10647986676653039 -0.055847534808910054 -0.1110357072703911 -0.10084826910963909 0.0045704929197634267 -0.0028913631937875633 0.061810088503646124 -0.059887716897505716 -0.10638204109652674 -0.11397947712266177 -0.006365739939073631 -0.029360864666665196 -0.040201573816432939 0.0041504399179718874 -0.069123996246905114 0.034652736401967109
leaf_count=50 130 56 239 308 69 50 110 71 62 60 147 54 98 60 75 57 59 94 54 63 97 91 98 54 51 67 73 66 72 89 52 103 107 57 64 98 75 75 62 99 97 89 380 114 50 82 91 67 104 100 71 52 52 53 70 50 51 75 64 58 264 50
internal_value=0 0.20193127257629059 0.3535141139217996 0.14314507612004784 0.26743042493121 0.58574583038372041 -0.42649143478474799 -0.14779643562226202 0.63396582454919026 0.75702935344178501 -0.35676732555533203 -0.15842266478299244 0.25819979663529868 -0.20030732423859471 0.46190145276182626 0.68587835464447988 0.087365830824790894 0.25924551524813277 -0.044228270757256861 -0.19189618428241101 -0.34303097654184328 -0.58600577938166187 0.81479538602762158 0.71268692269688805 0.77894382219512459 -0.23064940274338552 -0.0082702583221784046 -0.17379523703398148 0.24350454921090495 -0.12739708058123506 -0.35500251430738816 -0.42025148323236838 -0.11294312906912322 -0.53587590785503314 -0.19979441585170926 0.40848489174425251 0.49948331573018168 -0.47170300427884204 0.23211440217861373 0.12405614391226169 -0.044051704415734236 0.91913659372474332 0.82160423029181695 0.14446318511545372 -0.34096599993663002 0.50209654289285766 0.72952925278103575 -0.18995979403805924 -0.69637809145154494 -0.58521246727837328 -0.43317060363244914 -0.55939515164026776 0.093770575691301108 -0.139040916398911 -0.56574889159791164 -0.6696404669285686 -0.60391200427215586 0.086874727791383846 -0.78120641475120722 -0.47276511408269772 -0.56725223723753615 -0.086168543607025735
internal_count=5600 4290 3020 1568 1251 1452 1310 1270 1402 1069 1200 636 333 359 892 459 385 151 326 272 317 564 1009 770 716 1124 403 330 138 220 721 654 210 251 121 196 146 192 433 358 259 520 431 183 162 235 153 117 473 369 269 176 168 116 444 104 198 164 124 374 316 112
shrinkage=0.1
has_categorical=0


Tree=8
num_leaves=63
split_feature=25 25 5 27 26 0 25 27 21 3 21 13 1 3 25 21 7 26 25 22 19 25 26 27 6 27 22 5 5 27 10 27 26 19 9 2 2 10 21 22 5 6 10 27 25 27 10 3 27 15 26 21 20 25 27 0 5 7 15 26 5 2
split_gain=77.618460851197824 45.28769464158615 36.935706725359609 36.253912392801567 20.678660405236275 19.611012364166982 18.954939410451821 16.816626332515408 15.985015668962895 15.47839427187953 11.441411139160856 11.188737463743847 11.089082565658636 12.21012332010061 10.888089917324837 16.340151152292606 12.068207035482773 10.735934459583603 9.3150536985413606 9.2504016477859015 12.18360885334681 9.0442149874842386 8.6081143527740238 12.694886541095872 8.0878748549661292 8.0611361983238865 7.9430262814288763 8.6969387991246343 7.8383114674821641 7.6761440396396869 7.4808404806734785 8.1675918027465517 8.6086980307947201 8.2075765665965896 8.6945063758080892 8.8930099658738797 9.4470861783163205 7.3947233198276034 7.1530885006429621 7.0497870767484798 7.0128648238198714 7.9923315403099373 7.234943665249574 6.8359063520725094 6.8032256217557006 6.5964053652468735 6.5864406301518557 6.8795329720244167 6.4817426582533182 6.0842304171389934 5.8731650553183057 5.6907986066517076 5.6065166214611244 5.5498001576462457 9.2373016476353342 6.2344006914665826 5.6720594746900854 5.3622381971688799 5.1970774085170852 5.1081870313023927 4.824425664612308 4.7803131833026411
threshold=1.1785000000000001 0.59250000000000003 0.88149999999999995 0.90650000000000008 0.77649999999999997 1.7124999999999999 0.96550000000000002 0.90450000000000008 0.70950000000000002 1.8334999999999999 1.0625 1.2565 -1.0194999999999999 2.0674999999999999 1.5585 1.0925 1.1785000000000001 0.83850000000000002 0.46950000000000003 1.0514999999999999 0.53400000000000003 0.99249999999999994 0.89850000000000008 0.79949999999999999 -0.68149999999999999 0.9265000000000001 1.0354999999999999 0.65549999999999997 0.88650000000000007 0.84850000000000003 -1.3475000000000001 0.84050000000000002 1.1315 1.2124999999999999 0.75550000000000006 -0.33299999999999996 1.0225 -0.45050000000000001 0.95550000000000002 1.2755000000000001 0.7004999999999999 -0.86450000000000005 0.68249999999999988 0.72649999999999992 0.76849999999999996 1.0785 0.79149999999999987 0.86650000000000005 0.68249999999999988 -0.21850000000000003 1.0345 1.0834999999999999 9.9999996826552254e-21 1.8325 1.3970000000000002 1.0865 0.94250000000000012 -0.2235 0.047500000000000001 0.91749999999999998 0.90050000000000008 -0.42850000000000005
decision_type=0 0 0 0 0 0 0 0 0 0 0 0 0 0 0 0 0 0 0 0 0 0 0 0 0 0 0 0 0 0 0 0 0 0 0 0 0 0 0 0 0 0 0 0 0 0 0 0 0 0 0 0 0 0 0 0 0 0 0 0 0 0
default_value=0 0 0 0 0 0 0 0 0 0 0 0 -2.2625000000000002 0 0 0 -1.7304999999999999 0 0 0 -1.7275 0 0 0 -2.7565 0 0 0 0 0 -2.7195 0 0 -1.7275 0 -1.7284999999999999 -1.7284999999999999 -2.7195 0 0 0 -2.7565 -2.7195 0 0 0 1.7976931348623157e+308 1.7976931348623157e+308 0 -1.7275 0 0 0 0 0 0 0 -1.7304999999999999 1.7976931348623157e+308 0 0 1.7976931348623157e+308
left_child=1 11 4 17 40 12 7 10 -8 14 22 30 24 21 15 16 28 37 -13 20 58 39 23 49 -5 -17 27 -10 -2 -29 -1 33 38 34 35 -32 -37 -4 59 -14 41 -3 -43 -39 -24 50 53 -48 -42 -6 -30 -21 -23 55 -55 56 -16 -41 -9 -33 61 -36
right_child=9 2 3 5 6 -7 8 19 26 -11 -12 18 13 -15 46 25 -18 -19 -20 51 -22 52 44 -25 -26 -27 -28 29 45 -31 31 32 -34 -35 60 36 -38 43 -40 57 48 42 -44 -45 -46 -47 47 -49 -50 -51 -52 -53 -54 54 -56 -57 -58 -59 -60 -61 -62 -63
leaf_parent=30 28 41 37 24 49 5 8 58 27 9 10 18 39 13 56 25 16 17 18 51 20 52 44 23 24 25 26 29 50 29 35 59 32 33 61 36 36 43 38 57 48 42 42 43 44 45 47 47 48 49 50 51 52 54 54 55 56 57 58 59 60 61
leaf_value=-0.084271334472608372 -0.077117305713696627 0.02065957795640239 -0.011717212912695472 0.044972664392001163 0.034236917116807666 -0.056802305937922959 0.072658423742138531 -0.10758967657916403 -0.11257987235217988 -0.11664889399124655 -0.014699008913308132 -0.020510872719994324 0.10443860883083117 -0.032521684520295031 -0.077336041558052543 0.11169493314691506 0.046759071846992212 0.097867150959650331 0.090226597174153031 0.086436123355605549 0.043706406197865207 0.052738616745536482 0.033481349012839286 -0.014259540430725349 -0.060182253901820373 0.010588960137374783 0.0096878049630394654 0.032663688978572941 -0.032407603680155696 -0.071958697413752687 -0.073253041006752825 -0.13693573406604728 0.021538098072489725 -0.06915525520197624 0.064126471095225332 0.051533662038686971 -0.057329988114585145 0.11529022196817616 -0.023437318450599619 -0.0092868137255968444 0.057824941671522856 -0.091760947230008258 -0.0091888150748895055 0.031291204211416727 0.12141718589443994 -0.073236634076618665 -0.06388733191811688 0.036464765772567707 -0.034206422583247541 0.098265132962153917 0.043208155472822543 0.0030355181711467709 -0.037204989177065453 -0.114855966592725 -0.024608798838721184 -0.10029831624647297 0.0061383282056466553 0.082531407722001057 -0.025283261901084104 -0.055376540277869181 0.088870395007794672 -0.017570890584791287
leaf_count=90 180 53 68 50 110 116 65 63 81 110 84 61 192 65 50 50 69 630 64 60 62 66 50 101 77 92 96 51 97 66 85 71 54 73 50 86 53 75 85 51 58 154 62 92 166 73 56 63 70 154 75 77 50 162 70 57 106 56 63 58 55 71
internal_value=0 0.18379331956898654 0.29894874654764031 0.53026923732278897 0.094530374866046998 0.19923910067152187 0.21637235332261967 0.36574684030282939 -0.18074461388529711 -0.38870773074328391 0.55903620098562001 -0.20453264055776815 0.3462468129349523 0.48842170133194207 -0.3243238380763121 -0.14343372364889537 -0.31914690432856696 0.82913855686028082 0.36092991698729271 -0.00893990136721649 -0.30107159262537198 0.61862653149802382 0.66482942623856245 0.47355336945329329 -0.18830183518068258 0.46179464380341456 -0.3824547688735902 -0.61435989710833683 -0.4479658180397858 -0.26124829151921392 -0.28995604221353277 -0.22270227963394926 -0.50699640351464792 -0.062565248036198354 0.051138638328922917 -0.21415034008131945 0.10122495509095591 0.45631733138110675 -0.6913500313050186 0.80887866450852142 -0.31475409451485392 -0.50288640331230927 -0.67816280976331134 0.6902130860447907 1.0026492804437557 -0.21095755608231467 -0.53517957992959464 -0.099607326704187427 0.077107656421050316 0.71578464878871195 0.003343880575909652 0.39178047972708635 0.14016357398759699 -0.64989682777260349 -0.87424784301149883 -0.4128039703859599 -0.20456077118315288 0.38779229890192313 -0.66223053063211978 -0.99529298908252173 0.38834391467574952 0.1630417596815755
internal_count=5600 4290 3334 1588 1746 723 1349 990 359 1310 665 956 607 480 1200 636 494 865 125 325 188 415 581 365 127 142 294 198 425 117 831 741 268 473 400 224 139 235 214 299 397 269 216 167 216 245 564 119 128 264 172 137 116 445 232 213 156 107 126 129 176 121
shrinkage=0.1
has_categorical=0


Tree=9
num_leaves=63
split_feature=25 25 26 27 26 25 24 9 11 5 27 27 22 3 17 5 19 22 9 21 25 26 5 3 5 5 8 27 22 27 19 24 6 14 21 21 6 24 17 19 15 11 15 22 21 14 24 17 9 27 11 4 7 22 27 9 19 25 26 25 22 1
split_gain=64.532397509571283 45.517230706746339 29.683607099639673 38.068578010941621 15.6535423770124 15.124897734773285 14.533538073114313 14.429282207643006 12.015947580111181 11.349979547572454 10.383794690630902 9.5101402564812219 9.4997636976304829 9.351094163496299 11.980484617842032 9.3178984756750172 9.257412590655413 8.6691165090869511 8.6326335663336664 8.301077580110011 8.0917914713512893 8.5562935079932174 13.371998967008917 7.7736181031983378 7.6425828652385874 7.6333444429181476 7.5004892836370569 7.4471859237730795 8.1430324814653385 7.322285933024248 7.1772584138021127 6.8781249218571325 6.7251183168241662 6.5118952339842622 6.5114428627628769 6.4972833609522809 9.9851183139934694 6.4322820925979567 7.0144845401104003 8.4136568458361243 6.2472577318645968 6.2254021101615518 5.724629748775186 5.4596549706345421 5.4272622676627975 5.322220767633052 4.9600971779382839 4.8987390394157018 4.7215788982429494 7.3744600065748429 4.6308530637095391 4.6063076626423847 4.5917064947799489 6.158686357787202 4.3792700696694986 7.9139326512857195 4.3744350859902168 4.3407186422629422 4.231262813842811 4.6242404211596053 4.1687176102452552 4.1677083512058202
threshold=1.0674999999999999 0.68249999999999988 0.8145 0.88650000000000007 0.89250000000000007 1.5585 1.2745 1.2814999999999999 -0.57250000000000001 1.3365 0.75649999999999995 0.8085 0.8015000000000001 1.5125 0.76950000000000007 0.79849999999999999 1.1685000000000001 0.93850000000000011 0.65149999999999997 0.82250000000000001 0.94550000000000001 0.72849999999999993 0.6895 1.8334999999999999 0.73449999999999993 0.8165 1.6299999999999999 1.0065 1.0105 0.98750000000000004 0.7024999999999999 1.4975000000000001 -0.056500000000000002 0.69750000000000001 1.79 0.79149999999999987 0.24550000000000002 1.2635000000000001 0.73550000000000004 -0.25850000000000001 0.59650000000000003 -0.89749999999999996 0.064500000000000002 1.0465 1.0925 -0.50150000000000006 0.99950000000000006 0.48050000000000004 0.91850000000000009 0.8105 -0.12250000000000001 0.1855 -0.15450000000000003 1.0465 0.9265000000000001 0.9225000000000001 0.059499999999999997 1.8325 0.87150000000000016 0.85850000000000004 0.98849999999999993 0.1285
decision_type=0 0 0 0 0 0 0 0 0 0 0 0 0 0 0 0 0 0 0 0 0 0 0 0 0 0 0 0 0 0 0 0 0 0 0 0 0 0 0 0 0 0 0 0 0 0 0 0 0 0 0 0 0 0 0 0 0 0 0 0 0 0
default_value=0 0 0 0 0 0 0 0 -1.7315 0 0 0 0 0 0 0 -1.7275 0 0 0 0 0 0 0 0 0 0 0 0 0 -1.7275 0 -2.7565 -2.5899999999999999 0 0 -2.7565 0 0 -1.7275 -1.7275 -1.7315 1.7976931348623157e+308 1.7976931348623157e+308 0 -2.5899999999999999 0 0 0 0 1.7976931348623157e+308 -1.7264999999999999 0 0 0 0 -1.7275 0 0 0 0 -2.2625000000000002
left_child=1 9 10 4 11 6 8 15 44 12 20 24 19 14 25 18 26 40 -5 51 21 22 -3 31 -4 -10 33 -8 -29 -11 35 52 -13 -17 -9 -16 -37 38 48 -40 -14 -20 -21 -43 54 -23 -28 -6 49 -19 -12 -1 53 -7 55 -2 -42 -54 59 -26 -41 -62
right_child=5 2 3 7 47 23 27 34 13 29 50 32 17 -15 30 16 -18 37 41 42 -22 45 -24 -25 58 -27 46 28 -30 -31 -32 -33 -34 -35 -36 36 -38 -39 39 60 56 43 -44 -45 -46 -47 -48 -49 -50 -51 -52 -53 57 -55 -56 -57 -58 -59 -60 -61 61 -63
leaf_parent=51 55 22 24 18 47 53 27 34 25 29 50 32 40 13 35 33 16 49 41 42 20 45 22 23 59 25 46 28 28 29 30 31 32 33 34 36 36 37 39 60 56 43 42 43 44 45 46 47 48 49 50 51 57 53 54 55 56 57 58 59 61 61
leaf_value=0.013142391505181629 -0.094535729199380206 -0.060134834503607792 0.021823915941862164 0.035610792675074714 0.047669681298880578 -0.062892807342822529 0.082017433570793177 0.081703841684784062 -0.11288001835791342 0.077505930619968688 -0.10770736619246433 0.047793401956872858 -0.068004494986257574 -0.089652095215074307 0.065736124249288874 0.029011040309341752 -0.048030084108307891 -0.0086689094402767983 0.0096066825366201217 0.091441566239964148 -0.056167723586614197 0.0085970045061729474 0.054444060079227474 -0.13629910769530876 0.098788488430384569 -0.014854643070029953 0.014403676794152534 -0.039340508565836943 0.047723064406520473 -0.012526007778522858 0.070094176834073568 0.0016839322095869103 -0.053550338760089869 -0.048325169856274823 0.0016987726940228785 0.023190731313034951 -0.080254985608477145 -0.07743950415368335 0.058607130389857598 -0.060462015032562266 -0.048220339819718724 -0.10625088674118476 0.010127537335690105 -0.020946369595431398 -0.0025838096602059241 0.084928492077474035 0.083568666402945413 0.10599785363328061 0.011001538792520187 -0.10760745123457366 -0.024689577545928917 -0.06584398174990834 -0.051472422239040576 0.010669929027789925 -0.11582264362497562 0.0034942175877320627 0.025910765093531074 -0.10627525045484941 0.13206896973637378 0.025490526281839312 0.046040273462115963 -0.032213573601740923
leaf_count=67 87 101 121 66 76 145 73 185 50 95 52 55 269 57 51 157 70 65 52 69 70 64 75 57 98 98 64 87 90 63 93 91 59 64 56 98 65 52 119 52 72 81 74 50 50 98 136 542 66 61 61 56 125 74 81 56 61 129 71 65 60 53
internal_value=0 0.1904101179785061 0.35580569340746526 0.47089448961843361 0.75530642984499585 -0.29552991054904848 -0.14684867055963838 0.18477978994892755 -0.28483804801245088 -0.10965883214032555 -0.080427060232476089 0.46638920778655824 -0.17687749137930792 -0.099666649688457398 -0.0035082098884836946 0.044773253554605395 0.20945854943773701 -0.27424426598679857 -0.27470151856490488 0.16135078854742477 0.073281697213056954 0.20553153307432515 -0.10850824689096361 -0.55685172369286906 0.64169480014312386 -0.48099322879451362 0.3243050630437288 0.277650177087235 0.052126723879634969 0.40846915086708424 0.2268996390583195 -0.48854186527825272 -0.054127602336691387 0.064689815280135288 0.62670203164092075 0.0207739771796451 -0.17859767311875777 -0.10320942417069806 -0.028084989154243359 0.17481132267943719 -0.50053729256157731 -0.50187240945484646 0.49403311919389731 -0.73694233313119717 -0.63139279899663636 0.54716863321188547 0.61268882958450455 0.98624490881835236 -0.32942516505599595 -0.56217139920819692 -0.62777570262152671 -0.22562588957866975 -0.59312117296967326 -0.37121286443754481 -0.76883790439796862 -0.55721837542377972 -0.13958333927676703 -0.78502249569280147 0.87318866708161258 0.68561014274127163 -0.123576436608866 0.094524216253349877
internal_count=5600 3943 2589 2068 1087 1657 1036 981 786 1354 521 469 1196 512 455 740 491 930 249 266 408 338 176 621 355 148 421 250 177 158 307 564 114 221 241 214 163 528 476 284 402 183 143 131 274 162 200 618 192 126 113 123 473 219 224 143 133 254 234 163 165 113
shrinkage=0.1
has_categorical=0


Tree=10
num_leaves=63
split_feature=25 25 5 27 27 9 25 24 25 13 3 21 21 3 13 9 9 21 11 17 27 13 21 24 24 19 11 19 5 5 1 23 3 8 16 6 5 17 9 24 7 13 27 3 13 13 13 9 19 7 11 3 8 1 19 15 21 7 6 24 25 24
split_gain=66.350817087708847 45.817082733131812 17.840134827648001 22.426189187346935 15.731116355976727 14.580332505870938 13.696250985233476 14.745301393726288 12.294919835466221 10.486081068427236 12.744240425173732 11.442968472080707 21.509875802647375 10.163735407429378 9.8390451187916241 8.8962487553235281 8.7706761144638534 8.059284792598941 7.5264516663159906 7.3820734449150862 7.2999720465733695 7.0835428073044682 6.8280456623738459 6.7520089410380226 11.416750642849223 7.3703052951358146 6.2247580165855192 6.0938611996393135 5.8999452486584847 5.8779228102734704 6.5672305968863736 8.563413684264777 6.0548850358403001 5.8567302979205564 5.9935389403037291 5.8425414062972472 5.6490770011075782 5.5484862984511771 5.9483302157605111 7.2649150195495489 5.3802975897883272 5.3293603106818335 5.1303458563067466 6.5139227728842677 4.8817760124261458 4.8477077534106705 4.5053137334583502 4.4923381891115346 4.4486915740974133 4.2852982159373196 7.8886306049325707 4.8808306716781367 4.1835578446268684 4.9572560075832612 4.0828600903429262 4.4129722190745291 3.9848628144096665 3.8834068371289607 4.5631170064013054 3.8124733356245812 7.8172671955662754 6.6223745749770124
threshold=1.0674999999999999 0.62349999999999994 0.8165 1.0105 0.85450000000000004 1.2475000000000001 1.8125 1.2894999999999999 0.94550000000000001 0.60549999999999993 1.6175000000000002 0.94950000000000001 0.73550000000000004 1.9204999999999999 1.2464999999999999 0.75849999999999995 1.2814999999999999 1.1925000000000001 -0.74150000000000005 1.4004999999999999 0.95650000000000013 1.1145 1.0714999999999999 0.96249999999999991 0.74249999999999994 0.52049999999999996 -0.22650000000000001 0.35749999999999998 0.71649999999999991 1.1274999999999999 0.5495000000000001 0.99449999999999994 0.80750000000000011 1.6299999999999999 9.9999996826552254e-21 -0.30349999999999999 1.0234999999999999 0.64450000000000007 0.8035000000000001 0.85450000000000004 -0.72550000000000003 0.53150000000000008 0.77649999999999997 1.2574999999999998 0.62149999999999994 1.2745 0.85550000000000015 0.75550000000000006 -0.28150000000000003 -0.27650000000000002 0.50700000000000001 0.70550000000000002 1.6299999999999999 -1.4990000000000001 0.7024999999999999 -0.15650000000000003 0.79449999999999998 -0.14450000000000002 0.024500000000000001 0.88250000000000006 0.77150000000000007 1.1005
decision_type=0 0 0 0 0 0 0 0 0 0 0 0 0 0 0 0 0 0 0 0 0 0 0 0 0 0 0 0 0 0 0 0 0 0 0 0 0 0 0 0 0 0 0 0 0 0 0 0 0 0 0 0 0 0 0 0 0 0 0 0 0 0
default_value=0 0 0 0 0 0 0 0 0 0 0 0 0 0 0 0 0 0 -1.7315 0 0 0 0 0 0 -1.7275 -1.7315 -1.7275 0 0 -2.2625000000000002 0 0 0 0 -2.7565 0 0 0 1.7976931348623157e+308 -1.7304999999999999 0 0 0 0 0 1.7976931348623157e+308 0 -1.7275 -1.7304999999999999 -1.7315 1.7976931348623157e+308 1.7976931348623157e+308 -2.2625000000000002 -1.7275 -1.7275 0 -1.7304999999999999 -2.7565 0 0 0
left_child=1 4 5 21 14 8 7 9 22 36 11 12 26 29 23 -9 27 33 -17 40 -13 52 37 24 25 44 -11 -14 48 32 31 -31 -5 34 46 -20 -2 38 39 -3 -8 -26 49 56 -1 -22 -6 -46 -10 51 -51 -39 -4 -54 55 -42 -44 -43 -59 -55 -61 -62
right_child=6 2 3 13 17 -7 19 15 28 10 -12 20 16 -15 -16 18 -18 -19 35 -21 45 -23 -24 -25 41 -27 -28 -29 -30 30 -32 -33 -34 -35 -36 -37 -38 42 -40 -41 54 57 43 -45 47 -47 -48 -49 -50 50 -52 -53 53 59 -56 -57 -58 58 -60 60 61 -63
leaf_parent=44 36 39 52 32 46 5 40 15 48 26 10 20 27 13 14 18 16 17 35 19 45 21 22 23 41 25 26 27 28 31 30 31 32 33 34 35 36 51 38 39 55 57 56 43 47 45 46 47 48 50 50 51 53 59 54 55 56 58 58 60 61 61
leaf_value=0.078615519556321845 -0.11216320731741523 -0.084567700888156211 0.0083068761990333691 -0.059427382808339181 -0.092274874954327721 0.090645185594959571 -0.038974390500033609 -0.040901341774348093 -0.10515007277614713 -0.015595499190936292 -0.10969682381442612 0.043428560375115527 -0.10981934149212176 -0.060424068763715699 0.073397870689840036 0.10411560129323116 -0.0057971220149891237 0.0015214580127361117 -0.029554168969067204 -0.014492531405972795 -0.062691707367332969 0.090281285067440972 -0.022719980766121604 0.049988176550162897 -0.10408344264922718 -0.027709096590911808 0.07917080369672419 -0.044596215759732889 0.015405027032408198 0.10140704001656589 -0.016029718072537343 0.0042495169105702963 0.024362269213568356 -0.016921583919688909 -0.11658957252085921 0.048087660329738123 -0.026907673736527929 0.087138919913617843 0.042379371020726496 0.013122333718943974 -0.050443418928645949 -0.062317419376125352 0.025904928126062956 0.0077044242483886721 -0.033056865782606817 0.016534616633809045 -0.012817435913126396 0.051337070101771846 -0.031847998391174213 0.026226036069683174 -0.07574485466321336 -0.00053282483650339714 0.12412425010664158 0.069270537744061306 -0.1549128161125399 -0.12726269400036433 0.089031085020699244 0.025604677563706525 -0.050422848316746517 -0.02020449254354589 0.02703699988367644 0.10052815570978653
leaf_count=76 100 57 84 58 57 102 79 80 55 52 74 160 153 72 72 54 83 100 67 87 63 344 143 77 50 109 66 102 65 105 56 61 94 79 110 100 50 59 79 76 75 93 59 91 50 67 63 55 96 95 50 52 51 348 55 63 178 75 59 78 142 95
internal_value=0 0.18254855554990346 0.32733650569591932 0.47829272862199523 -0.16349915810562768 0.14402563997806847 -0.31519359682118098 -0.21824942958485047 0.07834259132840353 -0.34338529561905129 -0.25142136427884676 -0.17312096664088822 -0.37844875281185703 0.093754833229719087 0.01823277188458142 0.17372988137983364 -0.64651763034071652 -0.48440155885335373 0.38358830446314246 -0.6882207067735463 0.14320960690651893 0.64324672580383524 0.1823880438174651 -0.061588364370317519 -0.13920380095621632 0.14308813020280162 0.3726321189720791 -0.83579507038109158 -0.36249245697596033 0.23095216567657892 0.44630546840700053 0.65378040905036483 -0.076764790721436757 -0.64979779225433343 -0.81611860739053965 0.16958311842704746 -0.84377816954335305 0.25925647511314248 -0.027358178693914562 -0.29476987659447113 -0.8621418356365439 -0.43631440761320595 0.36527250711936193 0.54022031486217403 0.39438517274210566 -0.21845286184460702 -0.50132759407269845 0.10910004542942581 -0.58564066863645636 0.14527416663085993 -0.089298917888273016 0.45466932648506803 0.53294783103295296 0.58650454071475555 -1.0545939027940681 -0.85825422677377083 0.72962740564883311 -0.30338519579571438 -0.080014166205775741 0.53770833950893604 0.36736966155372319 0.56692555982995285
internal_count=5600 3970 2845 1588 1125 1257 1630 1271 1155 970 820 746 456 446 716 301 338 409 221 359 290 1142 939 644 567 290 118 255 216 374 222 166 152 309 230 167 150 796 212 133 272 277 584 328 181 130 120 105 151 256 145 111 798 714 193 138 237 227 134 663 315 237
shrinkage=0.1
has_categorical=0


Tree=11
num_leaves=63
split_feature=25 25 26 27 25 25 21 26 24 13 27 5 27 3 4 9 4 25 13 21 24 26 13 21 1 21 5 17 19 12 17 26 26 17 9 3 24 24 15 14 27 12 21 19 19 16 10 6 9 18 23 23 1 5 25 4 25 16 9 23 23 19
split_gain=54.475276787916862 38.027238919013342 19.243259194158078 26.518703133993782 11.92898959498587 11.729760270201993 13.816755234860452 11.14215071470359 10.843083262677052 10.125003116115227 10.068428189015151 11.757361738173197 9.9407040301092131 9.7396420723897048 10.1892627831262 9.6061703199858446 9.5652051494517991 8.8303457273660229 8.429582827259539 7.9659033589495358 7.959395166517921 7.6998201915773627 7.4111866172054199 8.4045606755045519 7.2263002190079551 7.6475859335909266 8.2195453623041548 7.1481816533471338 6.9933544158691081 6.7738181776309165 6.6936527268285229 6.4784778731775532 6.3148040176914897 6.6041380472973188 6.2859671403990056 5.9885013565042371 5.933411694085498 9.0387338496066914 5.966554841091587 6.5591059553660962 5.9296092940996452 6.1688521840182089 5.3771931516249554 5.274388493752932 5.3516715093322551 5.1001992196559467 5.0951032715223583 5.4604704574950738 5.0244000198348431 6.4516878342303929 6.772283306770448 5.7633095987142902 4.9700350854397755 4.9451113444306216 5.0507867027080477 4.9030340356433637 4.7973565902378681 4.4070616495357946 5.0050460191090593 5.91969368443704 4.3534585658727067 4.334408124715508
threshold=1.0674999999999999 0.59250000000000003 0.8055000000000001 0.85950000000000015 0.94550000000000001 1.5585 1.0925 0.88650000000000007 1.2805 0.86450000000000005 1.0655000000000001 1.0485 0.84450000000000003 1.6175000000000002 -0.70950000000000002 1.0615000000000001 -0.95150000000000001 0.89549999999999996 1.2464999999999999 1.0625 0.8145 1.0135000000000001 0.6984999999999999 0.71449999999999991 1.1825000000000001 1.1205000000000001 1.2494999999999998 1.1315 -0.44800000000000001 9.9999996826552254e-21 1.0865 0.85650000000000004 0.94650000000000012 0.64749999999999996 1.226 1.8334999999999999 0.95350000000000001 0.74249999999999994 -0.26850000000000002 -0.29600000000000004 0.73849999999999993 9.9999996826552254e-21 1.6765000000000001 -0.77350000000000008 0.92549999999999999 9.9999996826552254e-21 0.34949999999999998 0.41450000000000004 0.90749999999999997 -1.0009999999999999 0.98550000000000004 0.99049999999999994 -0.051500000000000004 0.51049999999999995 0.69750000000000001 0.57050000000000001 0.69049999999999989 9.9999996826552254e-21 1.5874999999999999 0.99849999999999994 0.98950000000000005 -0.29949999999999999
decision_type=0 0 0 0 0 0 0 0 0 0 0 0 0 0 0 0 0 0 0 0 0 0 0 0 0 0 0 0 0 0 0 0 0 0 0 0 0 0 0 0 0 0 0 0 0 0 0 0 0 0 0 0 0 0 0 0 0 0 0 0 0 0
default_value=0 0 0 0 0 0 0 0 0 0 0 0 0 0 -1.7264999999999999 0 -1.7264999999999999 0 0 0 0 0 0 0 -2.2625000000000002 0 0 0 -1.7275 0 0 0 0 0 0 0 0 0 -1.7275 0 0 0 0 -1.7275 -1.7275 0 -2.7195 -2.7565 0 -2.3614999999999995 0 1.7976931348623157e+308 -2.2625000000000002 0 0 -1.7264999999999999 0 0 0 1.7976931348623157e+308 0 1.7976931348623157e+308
left_child=1 12 4 7 15 6 8 17 10 -8 11 22 18 16 -15 20 27 34 36 21 53 -14 60 -24 25 32 42 52 -22 -16 -10 -19 -18 -34 40 48 37 38 -1 -40 -4 -42 -27 -11 -45 -21 47 -35 51 -50 -51 -7 -5 -3 -55 -25 -9 58 59 -52 -2 -23
right_child=5 2 3 13 -6 35 9 56 30 43 -12 -13 19 14 29 -17 24 31 -20 45 28 61 23 55 -26 26 -28 -29 -30 -31 -32 -33 33 46 -36 -37 -38 -39 39 -41 41 -43 -44 44 -46 -47 -48 -49 49 50 57 -53 -54 54 -56 -57 -58 -59 -60 -61 -62 -63
leaf_parent=38 60 53 40 52 4 51 9 56 30 43 10 11 21 14 29 15 32 31 18 45 28 61 23 55 24 42 26 27 28 29 30 31 33 47 34 35 36 37 39 39 41 41 42 44 44 45 46 47 49 50 59 51 52 54 54 55 56 57 58 59 60 61
leaf_value=-0.027848432870592146 -0.052544486738350639 -0.04090453467021541 0.10094340923159158 0.050966400078401079 -0.081295383084424161 -0.13387869388499032 -0.047232131089169571 0.028924717244499572 0.04486307374102836 0.10669797173561431 -0.10191409237548665 0.022344245926958155 -0.091178570164781481 -0.077766832136588485 -0.027581216902922215 0.079547231321316247 -0.0083853935577126726 -0.039652363960341067 0.06960164378292287 0.040388992281641389 0.011037257870485873 -0.061413810216799869 0.044018078031896446 -0.070293586857641865 -0.037213257547819505 -0.067035633311677487 0.058703534366874199 0.016485951039676216 -0.073457673998019765 0.053115928629101805 -0.038796772173930648 0.052639089770440288 0.00079082542301373319 0.06924875289541968 0.12716114889146155 -0.13039554817808272 0.05036757014197888 -0.046445417952560061 0.088190319485526109 0.00089335034526668395 0.061301837726245527 -0.0080449389761471715 0.0075190984662812368 -0.0034066208214490849 0.081143151748221939 -0.043832414480584038 0.10683316629775047 -0.011723601433911698 -0.085837356218297606 0.030337341374722878 -0.068256055537009988 -0.036010774051234061 0.12489567021950168 0.072571929097991955 0.0094177690869190148 -0.0031811170156987472 0.093793043408475385 0.0047234069208986285 -0.10573790990845755 0.021456091529358665 -0.13675136490287806 0.023306017347629968
leaf_count=106 51 51 75 74 74 58 58 56 113 50 109 131 168 80 93 70 98 82 63 62 71 51 50 144 95 84 61 91 101 83 61 57 83 137 57 52 60 233 59 90 138 101 77 81 51 57 96 50 95 80 83 52 83 77 176 68 500 73 64 53 53 50
internal_value=0 0.16629366542571986 0.28872901282403324 0.37851062998305213 -0.032610157279917153 -0.28699271751339828 -0.15531017724787274 0.63914437231774013 -0.28940432061191679 0.27178628739168326 -0.42189915266797645 -0.30278828100595057 -0.17692187716755237 0.1833465574190663 -0.17340685970696135 0.072337372429518793 0.27492530181149666 0.41606339468164172 -0.015191888957825639 -0.43524255964505765 -0.0311257654092717 -0.63496128493444193 -0.49213171940934897 -0.30844709334489606 0.16144440078418337 0.23676928141954587 -0.074516535560656738 0.63024811820889615 -0.38614551187688412 0.10350586004912365 0.1563217060000566 -0.029994021064468884 0.39270111377188838 0.51893514684153474 0.59316428517221653 -0.52453480641585515 -0.096191762987293497 -0.17148687278038452 0.092850815709207002 0.35473061998047695 0.47736724061072211 0.31431028749801976 -0.3108025935892515 0.50782853036163333 0.29228752445728262 0.00012891033625408874 0.67465871506591368 0.47118001851385055 -0.46708503191681588 -0.36860296973657569 -0.23741807542906601 -0.87668082160844607 0.89773327425694316 0.16847275242581447 0.28756456017354587 -0.48893033577745171 0.86289130314968754 -0.39553422225012635 -0.55795197761865845 -0.33443565860073704 -0.95708571114487173 -0.19207181957419883
internal_count=5600 3970 2971 2351 620 1630 1020 1066 780 240 606 497 999 1285 256 546 1029 510 611 388 476 269 366 262 781 686 222 248 172 176 174 139 464 366 371 610 548 488 255 149 314 239 161 182 132 119 283 187 558 448 353 110 157 304 253 212 556 273 200 136 104 101
shrinkage=0.1
has_categorical=0


Tree=12
num_leaves=63
split_feature=25 25 26 27 22 22 22 9 25 27 21 27 9 27 24 0 22 7 26 15 24 9 26 27 18 22 3 21 1 1 16 18 25 7 18 3 7 2 24 24 6 0 17 18 5 6 24 21 27 26 23 21 22 25 20 25 22 24 22 24 18 20
split_gain=44.822809707572269 31.364460064384144 16.856475475281819 22.075025747919369 15.277720302452309 14.433989019584409 18.225295527418169 12.078606812150275 11.943526749871628 11.788015897757873 11.417569281559963 11.024110463283421 10.179717348779214 10.117922301899625 15.401571913077182 10.052871015698834 14.40017194529419 9.5966827674072448 9.1513771326383306 8.5944531805701558 8.5064372126140881 8.3201833381425541 8.1566955052644303 9.3865604269797025 7.7491378518081131 7.8206064927684515 7.6763523073860656 7.61600597821535 9.0550303817514326 8.2920845917524133 7.7655331979151683 8.8183551251568364 7.5641353194884786 7.4421318290165521 6.8374128383556378 6.7439781351137409 6.935340123522848 6.6523942941600289 6.5806262247232183 8.314093204689101 6.5325033346925201 6.227961798891414 7.2256271429607608 7.522214381371203 6.0085501322042063 6.7666146356135206 6.0034148828553953 5.9940135300970381 5.892313894403733 5.6998416192444985 5.6612738249093812 5.5989977024959305 5.4027972826639843 5.3009569535832135 5.2615454458322244 5.2256241330300526 5.1838723811671636 5.1355170955655041 5.0749808244601731 4.9414107641162754 4.6547662957633769 4.3365093641137697
threshold=1.0674999999999999 0.62349999999999994 0.8055000000000001 1.0105 0.97550000000000003 1.0285 0.77949999999999997 0.85150000000000015 1.5585 1.0834999999999999 0.99950000000000006 0.85450000000000004 0.61050000000000004 0.85950000000000015 0.97750000000000004 1.0145 1.4459999999999997 -1.0325 0.96750000000000003 -1.214 1.6165 1.2544999999999999 0.86550000000000016 0.73849999999999993 0.24350000000000002 1.1665000000000001 0.51649999999999996 0.85150000000000015 0.9265000000000001 0.49249999999999999 9.9999996826552254e-21 -0.20150000000000001 0.73750000000000004 1.3159999999999998 -0.93650000000000011 1.9204999999999999 0.59450000000000003 -0.9205000000000001 1.2894999999999999 0.72150000000000003 -0.54649999999999999 1.0575000000000001 0.78149999999999986 -0.1295 0.54849999999999999 -0.3695 0.84050000000000002 1.0925 1.2264999999999999 0.72849999999999993 0.99350000000000005 0.99750000000000005 1.3014999999999999 0.82050000000000001 9.9999996826552254e-21 0.97350000000000003 0.92749999999999999 0.89349999999999996 1.4004999999999999 1.1274999999999999 0.91650000000000009 2.3264999999999998
decision_type=0 0 0 0 0 0 0 0 0 0 0 0 0 0 0 0 0 0 0 0 0 0 0 0 0 0 0 0 0 0 0 0 0 0 0 0 0 0 0 0 0 0 0 0 0 0 0 0 0 0 0 0 0 0 0 0 0 0 0 0 0 0
default_value=0 0 0 0 0 0 0 0 0 0 0 0 0 0 0 0 0 -1.7304999999999999 0 -1.7275 0 0 0 0 -2.3614999999999995 0 0 0 -2.2625000000000002 -2.2625000000000002 0 -2.3614999999999995 0 -1.7304999999999999 -2.3614999999999995 0 -1.7304999999999999 0 0 0 -2.7565 0 0 -2.3614999999999995 0 -2.7565 0 0 0 1.7976931348623157e+308 0 0 1.7976931348623157e+308 1.7976931348623157e+308 0 0 0 0 0 0 -2.3614999999999995 0
left_child=1 11 7 4 13 6 59 12 21 19 57 27 26 22 46 33 48 -10 -16 -8 -11 47 23 -4 25 61 -3 44 29 30 -29 -32 -24 35 -19 36 51 -14 39 -21 -9 42 -41 -44 -1 -46 -15 -7 -17 -47 -12 -5 -23 -42 -25 -34 -45 -6 -36 -2 -26 -13
right_child=5 2 3 15 10 8 9 40 17 20 50 24 37 14 18 16 -18 34 -20 38 -22 52 32 54 60 -27 -28 28 -30 -31 31 -33 55 -35 58 -37 -38 -39 -40 41 53 -43 43 56 45 49 -48 -49 -50 -51 -52 -53 -54 -55 -56 -57 -58 -59 -60 -61 -62 -63
leaf_parent=44 59 26 23 51 57 47 19 40 17 20 50 61 37 46 18 48 16 34 18 39 20 52 32 54 60 25 26 30 28 29 31 31 55 33 58 35 36 37 38 42 53 41 43 56 45 49 46 47 48 49 50 51 52 53 54 55 56 57 58 59 60 61
leaf_value=-0.066576181799178305 -0.0054584439351543701 0.076504495553609886 0.077204703886750145 0.077603816424050093 0.11676854042002505 -0.02644274010542761 0.025445718490121356 -0.015461488403934215 0.040369915983925614 -0.11759632095325748 0.00094430786961591381 -0.060150240336641327 -0.12173958597288626 -0.0096473974768189544 -0.021498600991366329 -0.031615196139493505 0.05562251257767406 -0.12343076058925383 0.076476016465533952 0.019977912725077551 -0.027017750370610799 0.11482827212604363 0.00084711985063154265 -0.040408478653442027 0.021539451373921534 -0.0032526465866925371 -0.017861398353479132 0.049701988470465419 -0.048256927422868023 0.10426707433409724 -0.06803086204930453 0.033484675400695017 0.092441647997020038 0.097395527240783625 -0.062650974848321772 -0.054226543622329794 -0.028265529990760447 -0.035319007359119088 0.0050814676059539121 -0.092622432433370261 0.10771651122396009 -0.11437712030955911 -0.077230415859988633 0.052995347354391535 0.052797643394088128 -0.079771174942271802 -0.1027912625671533 0.039302767826582097 -0.10942389747376043 0.0069109893794661124 0.075194464422526863 0.010093917039414476 0.022990718514133937 0.019940276212359959 0.0405899027984086 0.027506075881086795 -0.038313822598268883 0.069639210070264079 0.020312700555193342 0.071443787740003484 -0.046649455982839524 -0.12676073714780034
leaf_count=96 90 54 80 110 258 133 80 61 55 200 108 101 50 60 68 124 64 53 116 51 62 56 68 103 98 61 115 159 71 56 70 73 319 51 97 51 74 161 82 126 66 99 78 54 61 56 60 102 61 74 80 100 51 54 55 71 53 203 50 58 74 75
internal_value=0 0.15171157116022213 0.27361314076292642 0.35761804398323371 0.49627008075185802 -0.26177127043793735 -0.41491220990168076 -0.045674452417975422 -0.0075793351697353486 -0.5331620100160227 0.7588226294971171 -0.1357874112395023 -0.25438547992722171 0.32864507307334484 0.012809481959936544 0.037630576230007651 -0.28327004370863951 -0.35774054496281482 0.40255898331958606 -0.38401996213041917 -0.9353851063521168 0.23709556047135277 0.47984733066260077 0.16784229282076971 -0.40731639885530713 -0.65263044210275578 0.12269267597473613 0.016573750707422286 0.18873309765431287 0.32025002564943506 0.18641090325107312 -0.15911626659629946 0.66230900525776981 0.24589868082214372 -0.57753583852396095 0.13383650693863339 0.26002110225031039 -0.55796923194152537 -0.47792125889191794 -0.57751161586415245 0.39641164722776806 -0.6792223271084914 -0.53505862630102197 -0.27478087798988693 -0.24259385343406181 -0.034184627909119032 -0.5632950417779754 0.0222545809934802 -0.57302047442749082 -0.29786898740766748 0.32582328635396823 0.4518643501874734 0.70901722960982339 0.67879739432686725 -0.12599489876540754 0.79027180304235944 0.080008420736059668 0.95375853959734846 -0.34357260897034747 0.25117111679577386 -0.077511619607129947 -0.88224664096789196
internal_count=5600 3970 2845 2284 1649 1630 1033 561 597 885 649 1125 380 1000 304 635 249 255 184 623 262 342 696 238 409 237 169 716 429 358 302 143 458 386 200 335 284 211 543 461 181 410 311 185 287 191 120 235 185 130 188 210 107 120 158 390 107 461 147 148 172 176
shrinkage=0.1
has_categorical=0


Tree=13
num_leaves=63
split_feature=25 25 5 0 9 25 22 22 21 21 25 26 24 10 18 7 17 21 24 24 24 21 11 9 26 5 13 13 0 18 26 13 22 21 22 5 21 14 21 21 9 0 13 22 20 18 11 9 24 5 16 2 0 5 13 22 23 26 25 24 9 24
split_gain=36.948277825959593 26.203671881924311 15.695514240608141 17.406537474144301 12.160216423781087 13.955717451399037 11.989394031021533 15.132792763817442 10.529595254849909 10.155703692821591 9.7880754739220261 8.8147267971155578 13.151715601802763 8.296739196854233 8.1578144182362529 8.1566154669917879 8.0862983618034967 7.5674856714938485 7.4185857211333399 9.1590974673416099 7.1471992090703473 7.1198679765036648 6.9546594403207171 6.8118356883345488 6.801747615124901 8.5890385924143811 6.566217854302093 6.2304035949345424 5.5662263471627504 8.0462632793833961 5.5540979272602584 7.3081975894386257 5.4688674662275911 8.5279209570462307 7.255595616218697 5.3180429458397676 5.2112574945645207 5.1097126840779366 5.063088997128725 7.1561292230360198 6.1775476625797729 6.1541308871845768 7.4438640809078409 5.5183880377214383 6.0496627953723285 4.7550867376115633 4.6071107857436759 8.7619204759785507 5.3268543838502715 4.6292764398343911 4.5585547028215956 4.6503435245184335 4.6205025253395036 4.54489405398553 5.4152058743366283 4.5034070546094291 4.4936221094727244 4.1303035654078286 4.0759184831033384 4.0361898732341519 8.5362121140422218 3.9303677437580449
threshold=1.0674999999999999 0.59250000000000003 0.86950000000000016 1.7124999999999999 1.0554999999999999 0.94550000000000001 1.0285 0.77949999999999997 1.0095000000000001 1.0925 1.5585 0.76750000000000007 0.64149999999999996 -1.3165 -0.7004999999999999 -0.72550000000000003 1.2625 0.61149999999999993 1.2635000000000001 0.71049999999999991 1.1965000000000001 0.89949999999999997 -0.61450000000000005 1.2544999999999999 0.81150000000000011 0.63450000000000006 1.5245 0.65949999999999998 0.96849999999999992 0.33549999999999996 0.97849999999999993 1.0125 0.97150000000000003 1.0095000000000001 0.83150000000000013 0.59450000000000003 0.8165 0.43050000000000005 0.90949999999999998 0.59250000000000003 1.1375000000000002 0.94250000000000012 1.0985 0.86050000000000004 9.9999996826552254e-21 -0.67249999999999988 -0.0235 0.82350000000000012 0.95350000000000001 1.1325000000000001 1.911 1.3225 1.2130000000000001 0.58949999999999991 0.96550000000000002 1.3014999999999999 0.99150000000000005 0.89050000000000007 1.4095 1.0105 0.66449999999999987 0.89349999999999996
decision_type=0 0 0 0 0 0 0 0 0 0 0 0 0 0 0 0 0 0 0 0 0 0 0 0 0 0 0 0 0 0 0 0 0 0 0 0 0 0 0 0 0 0 0 0 0 0 0 0 0 0 0 0 0 0 0 0 0 0 0 0 0 0
default_value=0 0 0 0 0 0 0 0 0 0 0 0 0 0 -2.3614999999999995 -1.7304999999999999 0 0 0 0 0 0 -1.7315 0 0 0 0 0 0 -2.3614999999999995 0 0 0 0 0 0 0 -2.5899999999999999 0 0 0 0 0 0 0 0 -1.7315 0 0 0 0 -1.7284999999999999 0 0 0 1.7976931348623157e+308 0 0 0 0 0 0
left_child=1 16 4 8 5 11 7 27 13 35 23 12 -3 -4 -14 -12 38 -9 19 -19 32 -5 -20 26 -7 -26 37 -2 29 -16 31 -21 34 36 -13 -6 -34 -8 39 -1 53 42 56 -43 -45 61 49 -48 -49 -10 51 52 -47 -41 -55 -25 -40 -37 -24 60 -36 -15
right_child=6 2 3 21 9 24 10 17 46 -11 15 20 14 45 28 -17 -18 18 22 30 -22 -23 58 55 25 -27 -28 -29 -30 -31 -32 -33 33 -35 59 57 -38 -39 41 40 -42 43 -44 44 -46 50 47 48 -50 -51 -52 -53 -54 54 -56 -57 -58 -59 -60 -61 -62 -63
leaf_parent=39 27 12 13 21 35 24 37 17 49 9 15 34 14 61 29 15 16 19 22 31 20 21 58 55 25 25 26 27 28 29 30 31 36 33 60 57 36 37 56 53 40 43 42 44 44 52 47 48 48 49 50 51 52 54 54 55 56 57 58 59 60 61
leaf_value=0.034207215064435838 -0.033180418745546239 0.062996652391877267 -0.0028016928678227995 -0.059894074388066737 0.1196675008262022 -0.11557878037922023 0.01297443525243624 0.020845758482840482 0.0073923433969715806 -0.022048018477161594 0.0213388046945545 0.054569393070327134 -0.11422692312976045 0.07084477855627147 0.06812912410887588 -0.05930229351922317 0.03156036331687765 0.01273194133471057 0.043256887246189771 -0.087946387711362317 -0.019699203904558357 0.021253716505790759 -0.0095659115014293337 0.10484635386269413 -0.096387238155587279 0.0039228176575130313 0.067196727520020413 0.054698532314964569 -0.066551652869775199 -0.048898775168875808 -0.09053343783520415 -0.0065077658085485497 0.034146624155906621 0.0025133427140736596 0.036628736069959637 0.091090334331034833 0.11725828360889411 -0.05598499406231558 -0.080975199286813709 -0.088936523997388522 0.016901817758756234 0.073300885137060526 0.0369563413499212 0.040466480568837934 -0.043632210590014042 0.089142899605223549 0.074884509148014006 0.021852110442984667 -0.059347530833189499 0.079431345042057774 0.11112048722770003 0.013985756453734736 0.02643572995415519 -0.021973962972577574 -0.098639275306499172 0.020707847579006455 -0.0073145815522314833 0.018440853542782 -0.083588897255825523 0.031605069005623258 -0.072885273352628732 0.0096121574954857181
leaf_count=52 54 62 84 98 71 50 107 64 71 65 81 143 54 104 50 174 138 59 55 93 132 99 65 56 52 117 50 94 70 50 390 95 53 73 54 60 111 78 96 125 55 57 50 72 73 312 50 61 89 89 169 66 69 175 51 51 55 91 64 76 78 98
internal_value=0 0.13856557446752857 0.24208249653709663 0.40527114385161012 0.093973882674696349 0.0038401514305317491 -0.23916945915174201 -0.38023275756172759 0.5010668260026141 0.49028296244200903 -0.0070748770666423421 0.11024814110209624 -0.19443214905058087 0.63284583755314783 -0.43290195937023973 -0.32643258832536065 -0.14772080477626925 -0.48973423393734439 -0.54590912096177191 -0.66014312241015394 0.23803465536621368 -0.18283558448232451 -0.18224635104515616 0.21432648535394971 -0.46904509500237523 -0.27463065888218691 0.020094230684010381 0.22651548719319284 -0.21126958432410586 0.098670497599451762 -0.74573472273713814 -0.46181129928377068 0.34103743016752336 0.59616189567449063 0.17482465840512101 0.71680456582479968 0.88970369923580384 -0.15890052938036159 -0.22204814639672615 -0.37184180741913508 -0.4658016583336112 -0.055007542156702657 -0.30933323702817017 0.19793106562821217 -0.017088515075200275 0.70080331608779023 0.20032549916639661 -0.013075474902434419 -0.26880942671951508 0.46702378608259221 0.79819134508760625 0.68220437524507394 0.77579832437630381 -0.56902390080205389 -0.39405974521604498 0.64329913860982346 -0.53918750957038353 0.4851189898915193 -0.44724464317138674 -0.075699178177438542 -0.29675662328260866 0.40932710682929496
internal_count=5600 3970 2971 1459 1512 1225 1630 1033 1262 287 597 1006 286 902 224 255 999 885 821 637 720 197 184 342 219 169 235 148 170 100 578 188 588 237 351 222 164 185 861 458 406 403 201 202 145 818 360 200 150 160 616 447 381 351 226 107 151 151 129 208 132 202
shrinkage=0.1
has_categorical=0


Tree=14
num_leaves=63
split_feature=25 25 26 27 22 21 22 22 27 27 21 23 22 25 27 26 27 22 9 27 13 15 9 15 11 0 26 25 0 11 23 17 25 9 10 25 22 3 27 10 9 18 0 21 1 1 0 26 0 1 13 26 9 3 1 22 0 15 21 26 21 26
split_gain=30.3978335561257 21.615736174648156 12.821739080805848 16.892438181535027 11.634822802748893 12.315421431763575 9.9586412105171718 12.354011402741229 10.456388881602805 9.1704675955509085 9.1331937393302809 8.9641017128874712 10.0664905208337 8.1610845291009824 7.9848103953167033 10.919525529955925 7.7677208195214593 7.0833152979216489 7.0356953842686485 6.9444265551352267 6.7788854920612707 6.7582064471536576 6.6564709236447861 7.4642519727736438 6.580818283248127 6.428591201481443 6.3103057926911568 7.4562246375559891 11.418465497869759 6.1607839947092486 6.856745165705119 7.8923405790747854 6.1356086130866032 5.7344206138534339 5.8380950054133578 5.7932899307528611 5.5124918647250709 5.4236859836988245 5.3789332084457442 5.3248646498329961 7.224092129795082 5.4662197644516262 5.3021909528945059 5.2485181495785866 5.2020209088266363 5.3288673518772995 6.8919577333680664 6.9286908620460155 6.2461776542959591 5.1769236502653326 5.0398894416493318 4.8740035683357092 5.7106903346261424 4.6877560778695528 4.4803926267991772 9.1339784920600309 4.409577143464551 5.3671343953755981 4.3691124887467447 4.3659874484005705 4.2571653730692915 4.1694621313558251
threshold=1.0674999999999999 0.62349999999999994 0.77649999999999997 1.0105 0.99950000000000006 1.0925 1.0354999999999999 0.77949999999999997 1.0834999999999999 0.85250000000000004 1.7174999999999998 0.99449999999999994 1.4004999999999999 1.9044999999999999 0.85950000000000015 0.96750000000000003 0.72249999999999992 0.95950000000000002 0.83850000000000002 1.0965 1.2464999999999999 -1.214 1.2475000000000001 1.4674999999999998 0.41450000000000004 0.96849999999999992 0.86550000000000016 0.81750000000000012 0.75950000000000006 0.90149999999999997 0.98249999999999993 1.4604999999999999 0.73750000000000004 1.1665000000000001 0.012500000000000001 0.45250000000000001 0.97750000000000004 1.1555 0.76249999999999996 -0.077500000000000013 1.0714999999999999 -0.63250000000000006 0.40750000000000003 1.0870000000000002 0.86150000000000015 0.57400000000000007 0.65650000000000008 1.1015000000000001 1.0725 -0.034500000000000003 0.65949999999999998 0.87950000000000006 0.88850000000000007 0.65250000000000008 -0.062 0.84950000000000014 0.63050000000000006 -0.055500000000000001 0.87850000000000006 0.98550000000000004 0.89749999999999996 1.3850000000000002
decision_type=0 0 0 0 0 0 0 0 0 0 0 0 0 0 0 0 0 0 0 0 0 0 0 0 0 0 0 0 0 0 0 0 0 0 0 0 0 0 0 0 0 0 0 0 0 0 0 0 0 0 0 0 0 0 0 0 0 0 0 0 0 0
default_value=0 0 0 0 0 0 0 0 0 0 0 0 0 0 0 0 0 0 0 0 0 -1.7275 0 1.7976931348623157e+308 -1.7315 0 0 0 0 -1.7315 0 0 0 0 -2.7195 0 0 0 0 -2.7195 0 -2.3614999999999995 0 0 -2.2625000000000002 -2.2625000000000002 0 0 0 -2.2625000000000002 0 0 0 0 -2.2625000000000002 1.7976931348623157e+308 0 -1.7275 0 0 0 1.7976931348623157e+308
left_child=1 9 16 4 14 51 7 50 21 20 -7 29 19 39 22 24 18 59 36 -13 25 -9 23 26 -16 33 27 28 -4 30 -5 -32 -28 34 -1 -36 -3 49 -29 40 -8 -42 -23 44 45 46 -44 48 -48 -17 -2 52 -6 -41 55 -27 -55 -58 -56 -11 61 -10
right_child=6 2 3 11 5 10 13 8 60 17 -12 12 -14 -15 15 37 -18 -19 -20 -21 -22 42 -24 -25 -26 54 32 38 -30 -31 31 -33 -34 -35 35 -37 -38 -39 -40 53 41 -43 43 -45 -46 -47 47 -49 -50 -51 -52 -53 -54 56 58 -57 57 -59 -60 -61 -62 -63
leaf_parent=34 50 36 28 30 52 10 40 21 61 59 10 19 12 13 24 49 16 17 18 19 20 42 22 23 24 55 32 38 28 29 31 31 32 33 35 35 36 37 38 53 41 41 46 43 44 45 48 47 48 49 50 51 52 56 58 55 57 57 58 59 60 61
